solver_type L2R_L2LOSS_SVC
nr_class 596
label 198 1342 1243 41 413 973 224 255 398 1149 292 133 1104 1003 939 1371 731 984 843 1306 1325 1211 970 521 200 927 620 1220 327 89 1294 847 878 166 1060 980 1072 1137 1131 1120 52 35 962 1196 156 910 1335 1313 414 1144 979 824 1274 1210 1337 800 552 518 1283 360 1285 967 251 72 45 718 1088 1113 191 575 62 725 687 511 1065 1091 101 795 928 954 945 308 95 430 208 989 1186 405 318 997 150 912 300 314 909 877 943 540 1363 1058 631 1334 1223 964 710 560 593 1118 751 655 1170 6 214 294 1064 240 1037 211 876 1372 1308 660 423 1301 1280 1177 971 987 846 400 112 1296 1093 471 963 333 349 1158 1005 66 359 601 242 561 1275 1250 75 79 195 1244 960 572 553 442 988 1281 1234 936 867 946 580 1339 1011 341 267 1199 1267 881 648 383 1207 1109 406 938 1143 1035 1359 390 789 396 83 1358 736 1233 1176 1067 256 124 263 626 485 1090 1299 1055 1095 1369 39 679 210 951 1217 49 323 640 1033 358 337 516 380 161 966 763 182 280 986 26 856 489 1015 774 1361 895 868 1307 1236 8 1348 369 615 33 287 438 726 720 1350 245 760 1321 1045 288 412 805 351 1119 491 331 277 25 474 272 29 896 1008 261 147 1010 874 1190 218 1147 948 605 402 1169 58 815 1051 757 755 978 959 361 1157 1132 581 965 1116 60 335 160 1066 352 906 911 517 721 958 722 168 1329 665 957 1112 293 411 99 1336 443 125 1237 668 30 639 468 1036 230 81 1277 429 103 765 1038 940 451 1240 1290 348 4 555 1276 1266 1042 1340 365 50 53 625 40 624 448 1115 972 1107 291 94 1357 761 669 420 983 1312 1292 898 739 403 1324 519 376 814 1268 463 740 1254 862 313 1047 1367 900 851 893 756 1201 643 1287 918 834 1089 55 682 10 467 1159 792 344 926 298 541 1214 840 675 545 23 695 1044 189 738 458 109 1229 100 170 353 913 947 559 206 366 73 56 985 1248 473 833 384 688 1126 219 286 543 702 674 394 465 694 1314 436 758 1094 569 48 706 375 342 1184 712 587 933 1152 229 339 1333 934 269 776 1316 632 992 650 270 1020 410 141 249 841 393 1242 652 1216 707 661 1167 143 134 836 1124 461 993 889 1345 86 590 931 732 202 786 347 530 19 204 746 1252 796 730 714 1061 1346 571 34 729 704 950 1205 630 151 713 595 914 649 564 743 1048 791 845 484 279 252 1185 733 260 735 1278 61 1300 628 512 1002 634 472 603 1083 588 727 583 67 1200 157 246 968 1224 282 533 1330 880 1318 441 1070 635 902 421 522 426 1056 526 961 216 1271 1111 504 454 1139 444 691 942 787 924 203 476 1145 311 636 487 285 811 832 316 1320 653 173 184 784 415 550 812 883 1 692 379 374 244 619 809 1202 871 999 1327 1302 801 284 830 728 1368 853 254 719 427 88 1006 236 250 882 388 684 307 952 185 110
nr_feature 304
bias 0.000000000000000
w
-0.5832792721700290 -0.6581644154960227 -0.6880488212982325 -0.4552971837025139 -0.6747720233459377 -0.5903711899453592 -0.6777116645049872 -0.7337029817556509 -0.3247466592371462 -0.5160175967899691 -0.5774404264736922 -0.6138831303799769 -0.6737913195825991 -0.6226632367443058 -0.8997152708105483 -0.4233123140190883 -0.6046793689791025 -0.6668830182377173 -0.6849652622233114 -0.5483001460671939 -0.6669086815251749 -0.6623509820653284 -0.6848618581445436 -0.6872018176134818 -0.6866775239709524 -0.6418362159421189 -0.6540508515471452 -0.6475187992385079 -0.6856946918562682 -0.7190150599526859 -0.6813761465717896 -0.6808273027838303 -0.6851689518567636 -0.6090745091220151 -0.6596078077782741 -1.067742205301605 -0.8144932393154721 -0.1670932738732750 -0.6886426002898507 -0.6855176160917480 -0.6834957214648285 -0.6820964428654750 -0.6770242743890051 -0.7273866749300183 -0.6982953100041339 -0.6345542686887057 -1.770371357773293 -0.6873088397569431 -0.6794933960716315 -0.7745611017055101 -1.463437290719909 -0.8883964517433169 -0.6973232925122181 -0.9636704956499743 -0.7538146879919495 -0.7139354693134622 -0.7289190124976449 -0.6878748038557891 -0.7585966813300828 -0.6762998820248882 -1.753051611974581 -0.6801786175086167 -0.6839592154508832 -0.5646911638257358 -1.916506198655187 -0.7105781896965241 -1.263710395865731 -0.8641580515510819 -0.6946064944264099 -1.260062210596152 -0.6438606568598089 -1.048827055593421 -0.9000390446200491 -0.7609722437122874 -0.8145302018008319 -1.255190868728600 -0.6849511018693716 -0.7015898389544116 -0.7066911283893377 -0.6859566366936981 -0.9921034051144914 -0.6816178896408810 -0.7652292398896007 -0.7014920499631744 -1.690603360896387 -0.6996046719372353 -0.9593840244989195 -0.6859942006754861 -1.006063153395409 -0.6767590626475646 -1.726698843769422 -0.6962603823373836 -1.179071801257168 -0.6937346170071813 -0.7461932199633015 -1.283694446042945 -0.8000499436787812 -0.6930544667370322 -0.7287047384949692 -0.7191466398196615 -0.6705360164740214 -0.6475148357768352 -0.9350205349866033 -0.6961645112922532 -1.196178987571826 -0.7705419517858735 -0.7670866766207767 -0.6988287274740724 -0.6895575013739840 -0.7697317618782863 -0.8206328374271207 -0.6836410223478753 -0.8390250630832021 -0.9146801404754275 -0.7148365431123153 -0.6710228795340370 -0.8574402083850285 -0.7122405117524654 -0.7845964165977843 -0.6985051373935783 -0.7303365810025348 -0.7093822290808037 -1.064843113500437 -0.7563887607203266 -0.7521416743929279 -0.7092740962717519 -0.7154429823641235 -0.7133651771563191 -0.7026674981237842 -0.6967981084759207 -0.8378206730756563 -0.8615452320520647 -0.7078347399850836 -0.8139270988101263 -0.7095446129584323 -0.7144464118072542 -1.110100391205716 -0.7164803234970025 -0.6849416668933790 -0.8595842793133487 -0.6823729793320215 -0.7001439393936719 -0.6903978494765642 -0.7878060901078082 -0.8872972202732926 -0.7978365966799068 -0.7821384053270697 -0.6877907232477999 -0.7183771364773673 -0.6960587071533354 -0.6947875417531131 -0.7142161108042651 -0.7129515191391421 -0.6983920520699771 -0.7213233318488396 -0.7745221397526086 -0.6943274550181748 -0.6928373795775704 -0.7174068213567552 -0.6929786929888947 -1.023265898416369 -0.9224773556174225 -0.6960881722559003 -0.6891646196466715 -0.7129139187241194 -0.6976796312722154 -0.6804201802979618 -0.7633347729920422 -0.8251558024436729 -0.7197018977053827 -0.7382974789598611 -0.7205654912454768 -0.7940610877968637 -0.8051654115532507 -0.6934665523541136 -0.7350333749859165 -0.6824943965572111 -0.6720641555490152 -0.7539571599952570 -0.8606794372259090 -0.6980732980797439 -0.9148587065351045 -0.6969712307391885 -0.7305280826967199 -0.7126551820218945 -0.6918155980563660 -0.9376322122604027 -0.6960503667473207 -0.6919709321629497 -0.6842902026966662 -0.6960952573479807 -0.7276872166295741 -0.7032792287569120 -0.7002513787016632 -0.7109117766717342 -0.7062551396157021 -0.6921704617507376 -0.6994881042323718 -0.9111781707231016 -0.6919239293471117 -0.6970813266987366 -0.6951812830117378 -0.7406004104016687 -0.8156656514255888 -0.7351272189600334 -0.6809848043010566 -0.8201535684273787 -0.9788984399055443 -1.197209378408374 -0.6902162576672906 -0.7052676701207481 -0.7054306752669419 -0.7318233661839970 -0.7238726477868411 -0.6979054984683964 -0.6832416338767833 -0.7035623174435226 -0.6921329234714958 -0.7060352936352315 -0.6974411697319671 -0.7498450956155208 -0.7104855466441123 -0.6917408271517637 -0.7106010368532779 -0.7077324799408473 -0.7081228395039663 -0.6929782434507169 -0.6969515160180004 -0.8260336129958223 -0.6917812331766856 -0.6895407610692753 -0.6916980638414227 -0.6841307018466632 -0.7163498480809188 -0.6923426980411254 -0.8140657703098520 -0.6935741997422940 -0.7133685544762423 -0.7028865714131802 -0.6908218239128042 -0.6695764666652244 -0.6938875960936273 -0.6824567531302662 -0.8189590909369385 -0.7337447144163765 -0.6707711861427070 -0.7260656730810503 -0.6986274830123966 -0.6893061333493596 -0.7052762015253540 -0.7009893322254968 -0.7109989249484641 -0.6841243878456481 -0.7053807750958577 -0.7035606436112181 -0.7343393183800081 -0.6940653443880107 -0.7077294402209247 -0.6832898530576920 -0.7386613266743500 -0.7536641200338737 -0.6907407909192471 -0.6896952028969909 -0.6963358010231162 -0.7056862070710269 -0.7014508139594886 -0.6960375763904421 -0.7325314324256682 -0.7208519394737665 -0.7087692329900718 -0.6829984648911451 -0.6962660770609219 -0.7014713557374072 -0.6923352413977796 -0.6975624828672672 -0.6515461792278764 -1.693786933550138 -0.6926280104129030 -0.6941157902542751 -0.6939640763064485 -0.6939970371182755 -0.6826766597326336 -0.6827378444386584 -0.8116597784473425 -0.6984300430249330 -0.6979657036193179 -0.7610944652582748 -0.6906101534063000 -0.6918360742495770 -0.7129463871511530 -1.231675559772256 -0.6899767157767717 -0.6843419349920543 -0.6813552511410068 -0.6821767547029435 -0.6925686882695496 -0.6919507192120647 -0.8820081847254363 -0.7021409098542846 -0.6921301660258263 -0.6996080546885298 -0.7113753891282890 -0.6941177159884965 -0.6935336091374547 -0.6928807221689951 -0.6926772107054019 -0.6926746483335421 -0.7032329449733946 -0.7076699104728310 -0.6906619965058507 -0.6927737842188496 -0.6922916017894606 -0.7911307280826615 -0.6822347701681826 -0.6969456648090570 -0.6895284392497258 -0.6964801434123895 -0.6898262251422067 -0.6934573452480609 -0.7043785960237946 -0.6888074278332230 -0.7041903897174768 -0.6968518443625479 -1.038620413219564 -0.6937941416130988 -0.6817669512868373 -0.6917300180964897 -0.6959093448233908 -0.6945209429531957 -0.7360621177006306 -0.7042366683028236 -0.7472273219919545 -0.6974050899407429 -0.7040508099641345 -0.6844586798738613 -0.6909573194239904 -0.6890613403842795 -0.8310788312699404 -0.7291336714579338 -0.7089895831878782 -0.7232714040789087 -0.7430272569744055 -0.6996042993942630 -0.7150171038822944 -0.7053866239520437 -0.6958889658957245 -0.7233712930783327 -0.7142264505225836 -0.6899943811654023 -0.6947082717839204 -0.7180904078064979 -0.7353662339290458 -0.6745469079730904 -0.6877143852888716 -0.7709464969791945 -0.6952640847128166 -0.6962245659044446 -0.6961711090466120 -0.6916056636102035 -0.7441578228326078 -0.7008126922389738 -0.6962556978804292 -0.6819356864396904 -0.7080576744851658 -0.6969536518580614 -0.6912417845613167 -0.6920575711079536 -0.6925951891120977 -0.7147537323659192 -0.7126838481646974 -0.6912623414220732 -0.8264588830165099 -0.6991230004869461 -0.7016893484755894 -0.6916979217348233 -0.6948199418997348 -0.6967978874326602 -0.6870548588670864 -0.7082012954107298 -0.6940381688811262 -0.6866379070658128 -0.6853677165695945 -0.6969298499918131 -0.6944599253396493 -0.7333132175820075 -0.6907208204676217 -0.7022134403415388 -0.6985982340777012 -0.6846620761801275 -0.6861065715514711 -0.6963209767270037 -0.6887398858981615 -0.6932751905449454 -0.6995448733868467 -0.6953763047730801 -0.6918864897522232 -0.7123006820725599 -0.6946590976297262 -0.6913316940451598 -0.7307770131817469 -0.6979272317826487 -0.7124443126881621 -0.6892328812596269 -0.7015894919213829 -0.6905713057946304 -0.8621742481901966 -0.7040942233662595 -0.6927956717568874 -0.6955320805994398 -0.7028093943414470 -0.6907377005872309 -0.7050820812571365 -0.6905932553451063 -0.6944785300272039 -0.7559265858328290 -0.7050306865392807 -0.7634404147812345 -0.6917635592100377 -0.7189504591885085 -0.7165393794263040 -0.6961059565347699 -0.6929754546054019 -0.7048764132002642 -0.7128434453618576 -0.6921562492722400 -0.6906192568353651 -0.6948838135777000 -0.7002573511610477 -0.7078621499935169 -0.7015163440919118 -0.6906597558592836 -0.7018018671893997 -0.7174649713200690 -0.6906877510943357 -0.7053667346428729 -0.6986696261811000 -0.6910052810092532 -0.6920901236393049 -0.6900749196814066 -0.6959186986802586 -0.7005311190262914 -0.6993159906747254 -0.6918143837882629 -0.6906787423004811 -0.6897947609746286 -0.6907988424537397 -0.6918065011107049 -0.6906574804891353 -0.7009614698821562 -0.6965733355441270 -0.6901485453255630 -0.6911886000384267 -0.6950468510833427 -0.7024877957601640 -0.6905455840092719 -0.6969016397508907 -0.7183448558109313 -0.6920184228631968 -0.6966457340789490 -0.6948774690925837 -0.6913551206036556 -0.6977536014468934 -0.6955386261592953 -0.6904635267482953 -0.7106628743124729 -0.6887110923521794 -0.6973727140749213 -0.6922218192929787 -0.6946830879253032 -0.6903777453025128 -0.6953653165041226 -0.7006362033643654 -0.6951442303876059 -0.6911177499907378 -0.6952352792418995 -0.6904732290738136 -0.6940862576960389 -0.6970560603283504 -0.6938315370681413 -0.6977951912965946 -0.6901300200280517 -0.6935866926679255 -0.6894549451995861 -0.6954231726468103 -0.6897442688051452 -0.6926880940019096 -0.6911689194228987 -0.6906088023608471 -0.6903716617298948 -0.6804972277684812 -0.6931193667318010 -0.7033059946370676 -0.7062301916350239 -0.6905441412004968 -0.6907707119602840 -0.6901088199825838 -0.6794995573238172 -0.6996920398773447 -0.6932952336566168 -0.6826692134439741 -0.6954195724254056 -0.6925307782389132 -0.6906002447923449 -0.6935504071148709 -0.6820104468594771 -0.6816257129038096 -0.6921016543242987 -0.6929350063236993 -0.6911605436095366 -0.6778900604217389 -0.6892589802876244 -0.6917949898552651 -0.6959199274349154 -0.6867308580777987 -0.6926997238060757 -0.6933945120664133 -0.6909675125101395 -0.6952524538615347 -0.6925847267330401 -0.7005080356073549 -0.6895777044526467 -0.6898920779555590 -0.6940167275090794 -0.6907339788618410 -0.6905677898329592 -0.7030044090299079 -0.6903171540531396 -0.6987609310205580 -0.6955907041862482 -0.6923718010059444 -0.6920075255907091 -0.6805235629025471 -0.6912782250446781 -0.6960274005379941 -0.6931962628361895 -0.6903234093757870 -0.6903216253757158 -0.6951820135520175 -0.7054769346730011 -0.6924583330677384 -0.6904563488585177 -0.6891842531551241 -0.6914070700835640 -0.6892722366673828 -0.6904802714628568 -0.6870351540455764 -0.6896263123297522 -0.6935068987044570 -0.6913380482036353 -0.6902354125067413 -0.6983041843572569 -0.6904168808933244 -0.6904345340953707 -0.6929333697441314 -0.7006797674463442 -0.6902741049411033 -0.6903097469090176 -0.6929158643152256 -0.6924444615904214 -0.6899460870682306 -0.6959030655376734 -0.6908310044687688 -0.7293121543475329 -0.6905002498904749 -0.6899697552509490 -0.6907788177909525 -0.6932283152254717 -0.7027210896588234 -0.6925861840116028 -0.6910509920871286 -0.6929350287423729 -0.7020003546103927 -0.6906709478529547 -0.6950118811965900 -0.6898393879046291 -0.6932791301482442 -0.7145922508957118 -0.6911078117245861 -0.6910201494254028 -0.6905583387874311 -0.7039571943273386 -0.6908676505437918 -0.6923797990722669 -0.6893657359729907 -0.6928940985594167 -0.6917294166013980 -0.6924942221588171 -0.6908091910359949 -0.6854736022432857 -0.6870519924889977 -0.6927864227274271 -0.6906374218769764 -0.6910001775143810 -0.6903669682999637 -0.6910798492266716 -0.6907645964428915 
-1.578182511603292 -0.8819511054753146 -0.7355615680857952 -2.732309462596319 -0.7258492722360189 -1.353850247019427 -0.6868793976336429 -1.134796640752345 -1.053918304169018 -1.554696244341447 -1.303390762229514 -0.9875458593017548 -0.6679103101829217 -0.7349332060000497 -0.6348407087393071 -1.255113673168067 -1.259186146615737 -0.7156890777293206 -0.7180342980752589 -1.458624646896673 -0.7601445412105333 -0.8256236676674659 -0.6627091509775914 -0.6651654726924301 -0.6765431664843862 -0.6826618955127598 -0.8536622434636458 -0.6981740016868258 -0.6670653642416062 -0.9371557968048424 -0.6840807851881385 -0.6996578100588197 -0.6652250080784980 -0.7152245596938192 -0.7535602395293390 -0.6139839962074248 -0.7907903658084212 -1.113348459766941 -0.6665975453394107 -0.6685353406455845 -0.8402101127633193 -0.6622444463955026 -0.7181982452658869 -0.8196944697239209 -0.6777827681883655 -0.6820177780567932 -0.5115818785200326 -0.6709488928006858 -0.7099278424724242 -0.5999938157424235 -0.4561961021533676 -0.7163983503773680 -0.6627315591420673 0.1474492346238499 -0.6487749371828261 -0.6469858655462684 -0.6222169435174275 -0.6631661856855240 -0.6511295650629392 -0.7217925956754215 -0.6508681563521821 -0.6701356041044036 -0.8349737359736868 -1.130722390203856 -0.4453045036412867 -0.6653511040598703 -0.3473235029853142 -0.6734023852379306 -0.6541766515473751 -0.5771980552939171 -0.8811156006151565 -0.6336326644665068 -0.6771404814826428 -0.6397946780775337 -0.6054206493736121 -0.8100259071012884 -0.6648001795095996 -0.6657710575142034 -0.6546334430059038 -0.7818981273208520 -0.4283334702877727 -0.7142783371762583 -0.6298580813662250 -0.6609840296774085 -0.6076305293152906 -0.6446356441631623 -0.5156764050134961 -0.6640308189186477 -0.7832624305211804 -0.6617232469850458 -0.6128439624357418 -0.6406016099666634 -0.6609099835889908 -0.6573379128158955 -0.6530641474704948 -0.5529876993216142 -0.6673119683504788 -0.6597607487518757 -0.6709867696576273 -0.6615215580822675 -0.6848152599687738 -1.352583982307539 -0.7131924861547005 -0.6640660309677505 -0.6333747306372535 -0.6546626440227266 -0.6708683650847345 -0.6481751638928985 -0.6633638433513903 -0.6660143876503836 -0.6515191435243488 -0.6619478529269355 -0.7083877590604111 -0.6616399243351070 -0.6682921079827642 -0.7404047164305085 -0.7067349800616285 -0.6585376104862434 -0.6930785214536628 -0.6738657022559763 -0.6332086279379187 -0.6494745777544617 -0.6059180516009796 -0.6618282003066162 -0.6410393370099182 -0.6498325161571856 -0.6457300611832469 -0.6618275400047484 -0.6506204362039921 -0.6444578516611854 -0.6587229528142490 -0.6560160263008807 -0.6652637934277369 -0.6424668816907598 -0.6562454259741380 -0.6686296670319825 -0.6728684881057254 -0.6681134032177252 -0.6610863616326100 -0.6454890456301464 -0.6645170315108280 -0.6536679280365556 -0.6591326380916165 -0.6828753694675326 -0.4832892214093466 -0.6577798830503555 -0.6574202939622724 -0.6602807858303337 -0.7122623022618955 -0.6612806764634566 -0.6618113338483828 -0.6651757589102975 -0.6742582949132496 -0.6601466636065544 -0.6661934950891476 -0.6178527959440309 -0.6428917999258950 -0.6556304272758049 -0.6618298209227504 -0.6508812924871393 -0.6224409071225616 -0.6730965149194342 -0.6614549980439346 -0.6666878719195263 -0.6665217645859755 -0.6514876631983872 -0.6631986153288842 -0.6586885171074445 -0.6397170284574250 -0.6549455807366213 -0.6939666153083244 -0.6434233525340228 -0.6876627204969596 -0.6896217909899425 -0.6518694170075665 -0.6445306957144089 -0.6648027000678090 -0.7264213920365195 -0.6511035406134723 -0.6813195900578006 -0.6520619882367132 -0.6611980377353049 -0.6513399195638259 -0.6492380500904060 -0.6504779012635352 -0.6466371557831021 -0.7046831733388124 -0.6522564476467111 -0.6437178886071259 -0.6587035482092967 -0.6561773554828375 -0.6815379501069083 -0.6489426947816055 -0.6496314243580954 -0.6476378925315359 -0.6609563895894621 -0.6428208526322855 -0.6558222216922480 -0.6244142498667924 -0.6431275686590848 -0.6537824128103847 -0.6462512591636830 -0.6799621097960553 -0.7068675751805561 -0.5886784719439251 -0.6644879110304444 -0.6859757547167143 -0.6572705800232154 -0.6790019491608285 -0.6485136314125878 -0.6702280721620767 -0.6517645771045280 -0.6466850777301112 -0.6562521264757207 -0.6450876121187572 -0.6641975497496752 -0.6431231647788588 -0.6539087983597208 -0.6455286477105179 -0.6511004063082256 -0.6491646491925842 -0.6509418705161886 -0.6440371783424533 -0.6540072350246491 -0.6531898803329657 -0.6561083247531379 -0.6447744022501329 -0.6643718736468522 -0.7491493727303232 -0.6434569644153900 -0.6468311964245473 -0.6432687815045466 -0.6657147145519847 -0.6662743953283433 -0.6622574802016128 -0.7014926291655066 -0.6606681882514092 -0.6574549315002114 -0.6782290954730762 -0.6591748741206863 -0.7051961392674481 -0.6525832500711999 -0.6657109681466229 -0.6821723217943602 -0.6714885676206872 -0.6738283933959393 -0.7271049199571009 -0.6523420194361569 -0.6570177420523573 -0.6502105371562116 -0.6534312008941187 -0.6554134638093300 -0.6599422468238518 -0.6782028010714459 -0.6452914379927044 -0.6429841753948011 -0.6599281010190242 -0.6398343962234567 -0.6642489049913226 -0.6505812393000587 -0.6979842623985958 -0.6458249780402375 -0.6621324412548969 -0.6474652787997922 -0.6853685375893863 -0.6545248668237554 -0.6498367642860782 -0.6637145500511198 -0.6579769722477455 -0.6474748820626975 -0.6734555766043281 -0.6500109676911324 -0.6447973866802656 -0.6497600129677742 -0.6533046301067088 -0.7329982599810824 -0.7221724768670919 -0.6499165421519585 -0.6441242101446963 -0.6552968816902620 -0.6446577595195722 -0.6634519999792827 -0.6671129113981826 -0.7008490034482512 -0.6476430085743653 -0.6411331954442223 -0.6521553981625153 -0.6738051582870747 -0.6499966682762088 -0.6706724203030973 -0.6556856373558925 -0.6472531575814544 -0.6626292577921994 -0.6592661542355722 -0.6580462884294628 -0.6468309560582320 -0.6514763223270977 -0.6325630199701398 -0.6539248175458441 -0.6428818896060535 -0.6601872340435456 -0.6619233307194207 -0.6426916732225460 -0.6444896150384568 -0.6463784525038334 -0.6458059970547195 -0.6490882006433350 -0.6500946001344153 -0.6541754115270810 -0.6641879893067941 -0.6561425802576276 -0.6468774667288669 -0.7329391895378515 -0.6602884113587065 -0.6424280310132302 -0.6470117196483955 -0.6554857119489897 -0.6559061810251112 -0.6545589962646249 -0.6469112686671605 -0.6464503064577672 -0.6617832502932227 -0.6549805914297612 -0.6353133682663351 -0.6495303894925537 -0.6540532726248495 -0.6445060286483200 -0.6512717894836877 -0.6440025338176804 -0.6604772993031074 -0.6505631720147227 -0.6739652385692204 -0.6772211691932115 -0.6461503036526423 -0.6647646428167948 -0.6566517613130924 -0.6484362385639472 -0.6837435410949254 -0.6699566519488429 -0.6524503774350343 -0.6558897542247912 -0.6539877770199009 -0.6511642717540594 -0.6607685343363564 -0.6478050227234873 -0.6549908885307835 -0.6520049170139297 -0.6733481480257472 -0.6444813981418894 -0.6544859649412195 -0.6465249726363917 -0.6619058739459394 -0.6913153750777642 -0.8422554125960483 -0.6194076387487554 -0.6431242790028573 -0.6481352353453929 -0.6497086620225803 -0.6572564419337180 -0.6584619401784904 -0.6608589500973101 -0.6507918936458041 -0.6806026339789456 -0.6421269406842531 -0.6500946326703340 -0.6465943160156714 -0.6525787954125557 -0.6455261178873855 -0.6790560550315301 -0.6488962872143405 -0.6460471315882415 -0.6585204693042936 -0.6567770103727120 -0.6641858097246580 -0.6432681769185615 -0.6428711066396686 -0.6483469266535009 -0.6575630347663530 -0.6570643502536527 -0.6534028076767135 -0.6518611051127239 -0.6496304366740158 -0.6565642321706471 -0.6516544803039636 -0.6917915832059167 -0.6434517408557429 -0.6507049125647373 -0.6445597821559421 -0.6607710069669186 -0.6735872523271246 -0.6546354597177050 -0.6522171619794539 -0.6448083450408928 -0.6717034783534072 -0.6463904105823368 -0.6435880637566771 -0.6515000822249926 -0.6563295543871804 -0.6475807687482431 -0.6594687961209534 -0.6610241302860209 -0.6642009878227394 -0.6477503792686166 -0.6401120993087848 -0.6516966706090205 -0.6969076482938014 -0.6506057207652697 -0.6453087064301383 -0.6513769958919687 -0.6467940854697090 -0.6457229250612824 -0.6510820181556131 -0.6453883080258268 -0.6422090148248653 -0.7004165781764735 -0.6562625597036876 -0.6661585602093093 -0.6446872725995706 -0.6586983151383599 -0.6494005548003928 -0.6533307449237159 -0.6459579576973141 -0.6589532336387927 -0.6498688033258748 -0.6475226740913804 -0.6551661070948890 -0.6552271542984156 -0.6497467777315346 -0.6518008117359463 -0.6520204278282890 -0.6428802853981050 -0.6536296632875825 -0.6477371648195177 -0.6431735248741100 -0.6594923415799829 -0.6434051424593293 -0.6438556526402580 -0.6436275388942930 -0.6474275802831508 -0.6428563077524755 -0.6433771877534592 -0.6505035618779450 -0.6433923184218820 -0.6431622017767390 -0.6455225312208289 -0.6432322749052708 -0.6447994287952780 -0.6430840709001077 -0.6699667288566872 -0.6466636036155164 -0.6442599446697787 -0.6445130388443293 -0.6472682017676011 -0.6427507932681500 -0.6435017275533436 -0.6441049293225277 -0.6512781879833922 -0.6493942227701025 -0.6397291550124302 -0.6393513996334509 -0.6435574705495947 -0.6465698346688622 -0.6487619999066399 -0.6436227474586333 -0.6438262181206684 -0.6509435673057369 -0.6443225149337757 -0.6456325599744480 -0.6473049911086305 -0.6498244753889476 -0.6430349044022513 -0.6518006772720330 -0.6579108967958684 -0.6429156822959423 -0.6474194591423265 -0.6436608652584019 -0.6514453548692287 -0.6496970252833346 -0.6478890506706093 -0.6493955226403467 -0.6598848093970031 -0.6502631066421777 -0.6478702942103273 -0.6479120396618600 -0.6474088919423842 -0.6451085394233107 -0.6429279132693996 -0.6475457325754488 -0.6440419364748173 -0.6565771655248444 -0.6449001950727227 -0.6545942188631528 -0.6483122627434323 -0.6449423636027737 -0.6445670768008044 -0.6450552547473495 -0.6583157752391113 -0.6471533195414211 -0.6512089666382717 -0.6526604815066650 -0.6451732176098556 -0.6437756457434871 -0.6432742975483778 -0.6406990273689954 -0.6539682572377923 -0.6544174524978416 -0.6538837559114065 -0.6530333290650068 -0.6457585081307441 -0.6450783898536352 -0.6527099891337518 -0.6558218338380596 -0.6591654490115477 -0.6611972245710982 -0.6485811467668553 -0.6564719337353495 -0.6447710547898420 -0.6414104419724957 -0.6473693108658043 -0.6487950585255962 -0.6475483576426789 -0.6454557599894549 -0.6584807516530499 -0.6486548240227604 -0.6431991791402002 -0.6401669634077908 -0.6485520028716670 -0.6404269838191569 -0.6426273460185662 -0.6444203819879021 -0.6458537604417167 -0.6565255363348347 -0.6446697575983663 -0.6438345615401375 -0.6500325013888743 -0.6464376317144572 -0.6440132314150255 -0.6506766890269905 -0.6388147537596750 -0.6466116676824502 -0.6439996107493486 -0.6496618924992329 -0.6437712389613325 -0.6470936845545491 -0.6460747546263627 -0.6478274098372753 -0.6469980056595486 -0.6509024806211983 -0.6439779205261632 -0.6443188948657396 -0.6505210112110690 -0.6442131917517546 -0.6442574426344130 -0.6422870925134890 -0.6382737639785043 -0.6436187404944392 -0.6454529650794240 -0.6474051331701841 -0.6461617397579065 -0.6449058060443941 -0.6398352446097798 -0.6463490682692041 -0.6487001903606037 -0.6483978401910008 -0.6459547102171528 -0.6468669065074873 -0.6451067993149443 -0.6468156755058224 -0.6434891184237386 -0.6440178448330492 -0.6427742176636579 -0.6505209525617436 -0.6441838016091750 -0.6428884088860928 -0.6455284524955683 -0.6449635503104185 -0.6426877142398338 -0.6440514351677703 -0.6470468118602450 -0.6450275886193745 -0.6430743716115943 -0.6433327221940546 -0.6433978421500035 -0.6462086619962161 -0.6459963880055817 -0.6433317007925250 -0.6429059797062324 -0.6456170446768430 -0.6573139360422562 -0.6496433691755883 -0.6482327187419300 -0.6428670881403650 -0.6429575545218078 -0.6442393317109213 -0.6433652363032202 -0.6429545574971829 
-0.6073338350451104 -0.6767158856410491 -0.6863475220387951 -0.4446357436894934 -0.6845457631095352 -0.6169512867443590 -0.6847266187642818 -0.4955983815444367 -0.6672418570084471 -0.5190321329828279 -0.5909145211132435 -0.6489188443751083 -0.6843601333211985 -0.6937439394830782 -0.8268406112399566 -0.9271196776059356 -0.8518065209260133 -0.6844439351183017 -0.6875586672460581 -0.5889954718429586 -0.7004884424924297 -0.6649166989604003 -0.6855708604009788 -0.6858009584261121 -0.6866528268440166 -0.6793826139175622 -0.6697284205681391 -0.6849557348147935 -0.6860359318672054 -0.3678458118954022 -0.6906881452260593 -0.6848364200406568 -0.6840404198875607 -0.6841012811288293 -0.7136909228788566 -0.7397392723293535 -0.7656520212854940 -0.8365612271895004 -0.6857156613026489 -0.6833000064618929 -0.6018465709060276 -0.6777435857337150 -0.6771333447325930 -0.8222106371941507 -0.6902794267061559 -0.6524948657431905 -0.9328891290650949 -0.6863185455886671 -0.6843906798690054 -0.7120553021655286 -0.8621999564373523 -0.7157876704393307 -0.6891517212885382 -0.9960624933163706 -0.6902200018477126 -0.6589074923349914 -0.6655291971192476 -0.6883944628468214 -0.7289924985929418 -0.6781737752946762 -0.9789753886414959 -0.6821316096476225 -0.5682914040611713 -0.6337687326033169 -0.5440021415699404 -0.7031019716559069 -0.5670285946059049 -0.6690760228777782 -0.6735466261104280 -0.6699792641931802 -0.6559794863337016 -0.6568815415070492 -0.7160938962893584 -0.7323968407125980 -0.6520018205399873 -0.6005038385730535 -0.6843083786323867 -0.6939946782783618 -0.6575438229928455 -0.6475194674875113 -0.7919904788314265 -0.6798283316955743 -0.7190853089978899 -0.6744723172743170 -0.5884645248561585 -0.6564892753410492 -0.7731514973735775 -0.6838879633729141 -0.6528868285271887 -0.6816928112843748 -0.6969706675324235 -0.6748454090620926 -0.7850323588017555 -0.6675820929164994 -0.6684755107403806 -0.9673233202525031 -0.7028796536939219 -0.6889982990789666 -0.7102926104981164 -0.6686809077685324 -0.7114539143520964 -0.6471299253930842 -0.7232570205740783 -0.6860655691345405 -0.7257397045989483 -0.7147700621297517 -0.7127085954452855 -0.6623592403550631 -0.6845360670814166 -0.6939833728267105 -0.7286365963361694 -0.6839875976674181 -0.6839369677756175 -0.7372955540031900 -0.6892959865238327 -0.6755845182356650 -0.8709743987866343 -0.6688163900813465 -0.7110488325846632 -0.6837035980237245 -0.6746310190771471 -0.6753801001266450 -0.6519354830858336 -0.6811809186150949 -0.6930481203475995 -0.6780515202988558 -0.6559814678275203 -0.6870073801240546 -0.6638681713493100 -0.6586328853000613 -0.6883252236652917 -0.6889723026136757 -0.6832964368965756 -0.7095994283573113 -0.6778027455749730 -0.6703381389619167 -0.6782773376114255 -0.6636894490148160 -0.6831109840122706 -0.6728802931383933 -0.6855448684682378 -0.6687499783387792 -0.6814499548118866 -0.6537172329839215 -0.7861038454751509 -0.6495569760273114 -0.7009152377128673 -0.6839486266247067 -0.7067430578319931 -0.6852092199634202 -0.6897140963593242 -0.6842003908063530 -0.6909081312657780 -0.6938906729104329 -0.6803532198843608 -0.6774120622383390 -0.6594865113079051 -0.6715375841312139 -0.6889162924927680 -0.6684025695585362 -0.6747729538844806 -0.6733815317236834 -0.6771177637568909 -0.6798292231482370 -0.6606084865347778 -0.6523915846029885 -0.6784937941784984 -0.6759129746358323 -0.6951216650833724 -0.6781268883711938 -0.6680472184250614 -0.6489180761883623 -0.6570056162577124 -0.7009524137876809 -0.6698502155801986 -0.6764479406494778 -0.6774131829497335 -0.6632655997093097 -0.6701169969219649 -0.6680335197250842 -0.6614157192942139 -0.8044327406198843 -0.6665817671520801 -0.6713395289725625 -0.6609917933571566 -0.6657938995322040 -0.9417099767011835 -0.6724136559263195 -0.6636972435200751 -0.6788462729522803 -0.6764466248680470 -0.6564356000048077 -0.6597918874687603 -0.6653136055630193 -0.6576320300007880 -0.6852409113171624 -0.6597705377618922 -0.6776517482353147 -0.6294311352731268 -0.6611788300306598 -0.6655651449445926 -0.6634239130332390 -0.6956797801454586 -0.7377549214051728 -0.6863378752969709 -0.6823799522861197 -0.6681544432230951 -0.6284174016199814 -0.7057258855709398 -0.6658428663267522 -0.6907507868713713 -0.6548729803126909 -0.6729526169343755 -0.6667407016785405 -0.6659247544469346 -0.6792746120920469 -0.6596051498871126 -0.6739056268794408 -0.6621687660172634 -0.6617113929330494 -0.6744146944785921 -0.6775628920162506 -0.6618661817492701 -0.6713533902900723 -0.6689909953644620 -0.6756385157202587 -0.6590304710918958 -0.6825256440719123 -0.7135301841275178 -0.6614018956572018 -0.6654579109230078 -0.6615549389963272 -0.6818635303772954 -0.6831604910740227 -0.6821832809347755 -0.7347180357421934 -0.6784494495131814 -0.6756440668972783 -0.6761092653151336 -0.6821262034034220 -0.7012643346605181 -0.6659715009486805 -0.6848463295440770 -0.7010618737901698 -0.6549661910321931 -0.6848772321779760 -0.6905450869620584 -0.6673275485587928 -0.6727024496216211 -0.6895938551321953 -0.6733634381499919 -0.6478465594672165 -0.6801458938696677 -0.6672374291405918 -0.6508773123617084 -0.6611144350472953 -0.6827883996577839 -0.6523328500232491 -0.6848516363013869 -0.6949277586164810 -0.6854878346129495 -0.6630399528297649 -0.6767398626330238 -0.6675692806557175 -0.6591129562757531 -0.6535046774744164 -0.6656257729839283 -0.6869868908293221 -0.6543749384486611 -0.6540874183998250 -0.6897418389906429 -0.6656523297797999 -0.6583790213838704 -0.6667909494674507 -0.6706431107344545 -0.6397705868057161 -0.6805647261765055 -0.6622374733068730 -0.6599668814209830 -0.6746353580340965 -0.6575383234820298 -0.6835787514443251 -0.6829025184319962 -0.6730844546471343 -0.6687811104899849 -0.6550265301319145 -0.6677811443992650 -0.6881865822221267 -0.6685976983132349 -0.6830482160495203 -0.5813940350408558 -0.6635783087041306 -0.6831287635291645 -0.6810263062708082 -0.6798705577242118 -0.6633574679595233 -0.6654563025859674 -0.6407664763212790 -0.7571306501329998 -0.6610049824284956 -0.6568373625260028 -0.6762177717999048 -0.6595193419635511 -0.6595071860048695 -0.6590701210558200 -0.6590887569802834 -0.6635913572762321 -0.6587027688760126 -0.6647506403398129 -0.6815892136506764 -0.6671397222440865 -0.6626769926535460 -0.6725598978365477 -0.6795338541038815 -0.6568793996148186 -0.6649815374736394 -0.6786658369257524 -0.6773826614362390 -0.6729709522949522 -0.6630107289724450 -0.6651562067324126 -0.6588186508358954 -0.6689042038169446 -0.6354460380696698 -0.6536766910199423 -0.6734360090035219 -0.6597023489508114 -0.6670891413433616 -0.6598710771432741 -0.6719914169302340 -0.6768579651707459 -0.6467790866841451 -0.6950749428344997 -0.6617190430773280 -0.6865393788788223 -0.6749697113876091 -0.6662282246054393 -0.6438561293502735 -0.6582201089328690 -0.6586426221884992 -0.6714140724045845 -0.6484529740462018 -0.6601172566332634 -0.6712449695660802 -0.6608138782943197 -0.6722490074808307 -0.6714196087215797 -0.6596186872430087 -0.6639963258892103 -0.6712706922663518 -0.6459400620686839 -0.7153239667701484 -0.6734397160925939 -0.6796161896848336 -0.6735866237381267 -0.6591063442016953 -0.6630585023084530 -0.6620799272273653 -0.6783717751713237 -0.6627243188125387 -0.6671810039373541 -0.6546008537249793 -0.6794452358547950 -0.6522403118948995 -0.6687112784153525 -0.6652274672889935 -0.6712807072225918 -0.6621314875877292 -0.6801714939491986 -0.6510917329495363 -0.6595043876640666 -0.6632398242537194 -0.6592223217532560 -0.6712801538692932 -0.6615545609388614 -0.6613064036287107 -0.6534095051143360 -0.6792448399507238 -0.6629925534472567 -0.6715199577577035 -0.6709941946568243 -0.6655174314516699 -0.6600839425755165 -0.6681136303811575 -0.6465652772357181 -0.6618651675977377 -0.6617095235101507 -0.6533680901665405 -0.6755044319088951 -0.6932694204144454 -0.6682235861412862 -0.6697400826167749 -0.6568766036802617 -0.6509019222975552 -0.6554956501526729 -0.6600305680796421 -0.6594439729948708 -0.6705696845131782 -0.6658305563715823 -0.6747898569723729 -0.6777779481795883 -0.6504935917547174 -0.6660997933845422 -0.6763967836599502 -0.6667801013721651 -0.6534226703428365 -0.6571801649400161 -0.6596297348597416 -0.6671757891402021 -0.6647825566978849 -0.6651742064577756 -0.6618655020996228 -0.6637051294798126 -0.6600645312913804 -0.6583938522675116 -0.6602890207558934 -0.5927449006983463 -0.6612288665008004 -0.6609595925838607 -0.6540988280935945 -0.6690794135102064 -0.6610467632318263 -0.6686908102650991 -0.6627524542394478 -0.6583824661752505 -0.6648352704283728 -0.6687975634426845 -0.6536807383028761 -0.6615918198882310 -0.6621647101540339 -0.6621836898505639 -0.6641010806251295 -0.6593471465394697 -0.6628376123584223 -0.6698937975733540 -0.6549270381022824 -0.6632254870181910 -0.6616084569049708 -0.6669711250957266 -0.6568564079879184 -0.6587663954396159 -0.6621617859120456 -0.6616881896649180 -0.6627439471852213 -0.6650529505414855 -0.6624654831949125 -0.6619345832476015 -0.6623425682970913 -0.6646791688593857 -0.6561441615992489 -0.6635617327322999 -0.6617680561848486 -0.6604030552285406 -0.6532069683028250 -0.6631644877067185 -0.6597518453977889 -0.6628483006392917 -0.6647996668387464 -0.6563270251384492 -0.6600872060070413 -0.6611417572802419 -0.6684394485821471 -0.6650232442212947 -0.6632436624378516 -0.6580496362973790 -0.6698922026534049 -0.6515696498639764 -0.6605665033046628 -0.6630960895838797 -0.6667049300848262 -0.6556444998062757 -0.6605472009312289 -0.6774892256546533 -0.6615324915026500 -0.6676440056254727 -0.6630922795792801 -0.6701563487807650 -0.6683798175713134 -0.6629362728629682 -0.6603732668284941 -0.6732727094606809 -0.6666044240050437 -0.6658259173836939 -0.6630785390905594 -0.6665586562574252 -0.6582137197738687 -0.6608366518114989 -0.6635519838839854 -0.6632204654674798 -0.6793527617652712 -0.6593872856724413 -0.6668390138081153 -0.6518398060363200 -0.6636973972463811 -0.6634290313260476 -0.6638891214124436 -0.6790565391166767 -0.6599447299532367 -0.6667347057472973 -0.6709073473558034 -0.6567993559045006 -0.6624479708329720 -0.6624580174827184 -0.6604024963478926 -0.6728316212432515 -0.6726250382439040 -0.6722661662869430 -0.6651322883860041 -0.6631216931068112 -0.6630669102103689 -0.6736808369060506 -0.6769195267836955 -0.6811275377453362 -0.6849777221546084 -0.6679647683203427 -0.6752491580315405 -0.6617929034405765 -0.6575275231616197 -0.6659367652741425 -0.6618674373854692 -0.6662223404190526 -0.6641013432731971 -0.6800423167457312 -0.6672328411174648 -0.6630604848173821 -0.6497739365215052 -0.6652733183388457 -0.6559828961989611 -0.6616914962321764 -0.6614197507592532 -0.6607684838332830 -0.6774827526084610 -0.6638155620600221 -0.6541373150847385 -0.6561269326458392 -0.6661739358005480 -0.6629056534880240 -0.6667716415562542 -0.6590419932716524 -0.6600191318132280 -0.6632950025629086 -0.6676805950060793 -0.6616642970193397 -0.6662897321284386 -0.6663378357702137 -0.6651937902017757 -0.6659563228762879 -0.6693181410000758 -0.6610190430970246 -0.6634563602274090 -0.6586372916003080 -0.6625745357693437 -0.6627087381482939 -0.6622260838751102 -0.6604384491994888 -0.6630440449391044 -0.6634985149216387 -0.6546199071155600 -0.6642236890187027 -0.6635679339405711 -0.6578904598404247 -0.6604141607166667 -0.6298242030501133 -0.6654319670486344 -0.6658130520036130 -0.6651710360717181 -0.6609919003337982 -0.6474852539087761 -0.6586238215541380 -0.6622917969921911 -0.6575425564082786 -0.6516656351553768 -0.6628638274690016 -0.6595722373845173 -0.6622354680189912 -0.6612493255670917 -0.6559530019696825 -0.6606076724899577 -0.6611420284765648 -0.6604856620556143 -0.6552988416795996 -0.6623754368125319 -0.6581460835300462 -0.6643774154537857 -0.6599370888182291 -0.6606030335088920 -0.6583084354715052 -0.6644590148225396 -0.6771433953237395 -0.6685604241018526 -0.6684687443956900 -0.6618441169870788 -0.6618600145725190 -0.6624635556983133 -0.6627383110439347 -0.6620824829198064 
0 0 0 0 0 0 0 0 0 0 0 0 0 0 0 0 0 0 0 0 0 0 0 0 0 0 0 0 0 0 0 0 0 0 0 0 0 0 0 0 0 0 0 0 0 0 0 0 0 0 0 0 0 0 0 0 0 0 0 0 0 0 0 0 0 0 0 0 0 0 0 0 0 0 0 0 0 0 0 0 0 0 0 0 0 0 0 0 0 0 0 0 0 0 0 0 0 0 0 0 0 0 0 0 0 0 0 0 0 0 0 0 0 0 0 0 0 0 0 0 0 0 0 0 0 0 0 0 0 0 0 0 0 0 0 0 0 0 0 0 0 0 0 0 0 0 0 0 0 0 0 0 0 0 0 0 0 0 0 0 0 0 0 0 0 0 0 0 0 0 0 0 0 0 0 0 0 0 0 0 0 0 0 0 0 0 0 0 0 0 0 0 0 0 0 0 0 0 0 0 0 0 0 0 0 0 0 0 0 0 0 0 0 0 0 0 0 0 0 0 0 0 0 0 0 0 0 0 0 0 0 0 0 0 0 0 0 0 0 0 0 0 0 0 0 0 0 0 0 0 0 0 0 0 0 0 0 0 0 0 0 0 0 0 0 0 0 0 0 0 0 0 0 0 0 0 0 0 0 0 0 0 0 0 0 0 0 0 0 0 0 0 0 0 0 0 0 0 0 0 0 0 0 0 0 0 0 0 0 0 0 0 0 0 0 0 0 0 0 0 0 0 0 0 0 0 0 0 0 0 0 0 0 0 0 0 0 0 0 0 0 0 0 0 0 0 0 0 0 0 0 0 0 0 0 0 0 0 0 0 0 0 0 0 0 0 0 0 0 0 0 0 0 0 0 0 0 0 0 0 0 0 0 0 0 0 0 0 0 0 0 0 0 0 0 0 0 0 0 0 0 0 0 0 0 0 0 0 0 0 0 0 0 0 0 0 0 0 0 0 0 0 0 0 0 0 0 0 0 0 0 0 0 0 0 0 0 0 0 0 0 0 0 0 0 0 0 0 0 0 0 0 0 0 0 0 0 0 0 0 0 0 0 0 0 0 0 0 0 0 0 0 0 0 0 0 0 0 0 0 0 0 0 0 0 0 0 0 0 0 0 0 0 0 0 0 0 0 0 0 0 0 0 0 0 0 0 0 0 0 0 0 0 0 0 0 0 0 0 0 0 0 0 0 0 0 0 0 0 0 0 0 0 0 0 0 0 0 0 0 0 0 0 0 0 0 0 0 0 0 0 0 0 0 0 0 0 0 0 0 0 0 0 0 0 0 0 0 0 0 0 0 0 0 0 0 0 0 0 0 0 0 0 0 0 0 0 0 0 0 0 0 0 0 0 0 
0 0 0 0 0 0 0 0 0 0 0 0 0 0 0 0 0 0 0 0 0 0 0 0 0 0 0 0 0 0 0 0 0 0 0 0 0 0 0 0 0 0 0 0 0 0 0 0 0 0 0 0 0 0 0 0 0 0 0 0 0 0 0 0 0 0 0 0 0 0 0 0 0 0 0 0 0 0 0 0 0 0 0 0 0 0 0 0 0 0 0 0 0 0 0 0 0 0 0 0 0 0 0 0 0 0 0 0 0 0 0 0 0 0 0 0 0 0 0 0 0 0 0 0 0 0 0 0 0 0 0 0 0 0 0 0 0 0 0 0 0 0 0 0 0 0 0 0 0 0 0 0 0 0 0 0 0 0 0 0 0 0 0 0 0 0 0 0 0 0 0 0 0 0 0 0 0 0 0 0 0 0 0 0 0 0 0 0 0 0 0 0 0 0 0 0 0 0 0 0 0 0 0 0 0 0 0 0 0 0 0 0 0 0 0 0 0 0 0 0 0 0 0 0 0 0 0 0 0 0 0 0 0 0 0 0 0 0 0 0 0 0 0 0 0 0 0 0 0 0 0 0 0 0 0 0 0 0 0 0 0 0 0 0 0 0 0 0 0 0 0 0 0 0 0 0 0 0 0 0 0 0 0 0 0 0 0 0 0 0 0 0 0 0 0 0 0 0 0 0 0 0 0 0 0 0 0 0 0 0 0 0 0 0 0 0 0 0 0 0 0 0 0 0 0 0 0 0 0 0 0 0 0 0 0 0 0 0 0 0 0 0 0 0 0 0 0 0 0 0 0 0 0 0 0 0 0 0 0 0 0 0 0 0 0 0 0 0 0 0 0 0 0 0 0 0 0 0 0 0 0 0 0 0 0 0 0 0 0 0 0 0 0 0 0 0 0 0 0 0 0 0 0 0 0 0 0 0 0 0 0 0 0 0 0 0 0 0 0 0 0 0 0 0 0 0 0 0 0 0 0 0 0 0 0 0 0 0 0 0 0 0 0 0 0 0 0 0 0 0 0 0 0 0 0 0 0 0 0 0 0 0 0 0 0 0 0 0 0 0 0 0 0 0 0 0 0 0 0 0 0 0 0 0 0 0 0 0 0 0 0 0 0 0 0 0 0 0 0 0 0 0 0 0 0 0 0 0 0 0 0 0 0 0 0 0 0 0 0 0 0 0 0 0 0 0 0 0 0 0 0 0 0 0 0 0 0 0 0 0 0 0 0 0 0 0 0 0 0 0 0 0 0 0 0 0 0 0 0 0 0 0 0 0 0 0 0 0 0 0 0 0 0 0 0 0 0 0 0 0 0 0 0 0 0 0 0 0 0 0 0 0 0 0 0 0 
-0.2589749039564242 -0.1983960025480452 -0.1773482527638316 -0.07207641515258260 -0.1764161214763183 -0.2220568926205332 -0.1722750192035660 -0.2802788446490080 -0.004655892876979968 0.1828073152525199 -0.2113587966323703 -0.2435084326668257 -0.1775665120434076 -0.1915925526240693 -0.06914092258670503 -0.3393957088704616 -0.2101517246728753 -0.2156729368489671 -0.1806769689534227 -0.2814317430278348 -0.1850723981787392 -0.1903984862867517 -0.1735334117820969 -0.1764379294043559 -0.1749136325757464 -0.1753141298319560 -0.1802684187989484 -0.1988318043806798 -0.1799541451217637 -0.1733372797013406 -0.1727850946474920 -0.1776144865561653 -0.1754168584885982 -0.1940554017885628 -0.1419507997412547 -0.1240590420049899 -0.1344055102870822 -0.8811369139474864 -0.1746444144840038 -0.1729714798748494 -0.1046911192337506 -0.1912709630263285 -0.1791492294281296 -0.1990285795560813 -0.1823187132590609 -0.2779971642687666 -0.2296544014190378 -0.1738223350127637 -0.1846522357315318 -0.2310164557655428 -0.3667903653555612 -0.3888318361915666 -0.1738341230942836 -0.1792243252427106 -0.1913372681736406 -0.2344281087525763 -0.2987116258297435 -0.1724527946323955 -0.1967945005711443 -0.1773147336273605 -0.2062257343883052 -0.1761320255719354 -0.09768318546858884 -0.2581020643067744 -0.4213027710501919 -0.1838575999510005 -0.4690738113900159 -0.2060306741063852 -0.1991660263017048 -0.2304205038721362 -0.2029004839533118 -0.1576770777473063 -0.1305540056727650 -0.1463146233959070 -0.2517517388444864 -0.3575860298360091 -0.1736720928913534 -0.1772286569878741 -0.2380873360239985 -0.1237904632340115 -0.3309912772486090 -0.1800262300532446 -0.1654899375880785 -0.1807794316924378 -0.2337930141978883 -0.2358732841434033 -0.3079167903668377 -0.1749227379545637 -0.2771250025971781 -0.1778957996257212 -0.1647402126977732 -0.1867002916211324 -0.3559675352303345 -0.2006033557982897 -0.2180960894440060 -0.3132255492978791 -0.1718306293674966 -0.1689419593015008 -0.1591887610604792 -0.1975842750977122 -0.1866146690242940 -0.2474290907642320 -0.1226098648286512 -0.1723358481330991 -0.2271024043310696 -0.1600586134642025 -0.1447852734964003 -0.2119204174738777 -0.1757052173746981 -0.1851761321823305 -0.2001885942323705 -0.1743895878864696 -0.2278424017884520 -0.2091745101851277 -0.1802847110017065 -0.1798657351777948 -0.4289135087676920 -0.1851935384108638 -0.1771629700760909 -0.1866363906809443 -0.2121761254480703 -0.1880376772799691 -0.2275001409309054 -0.2211775898040568 -0.1656536899650634 -0.1905255659957952 -0.2301540493048667 -0.1653270550420960 -0.2414319495520533 -0.2091066492551706 -0.1645222328595037 -0.1956821450070713 -0.1919841604671337 -0.2311038259562552 -0.1873954776372674 -0.1958203341078993 -0.2236753641032753 -0.2413213836785318 -0.1743213043704829 -0.1802015262276463 -0.1744121808770545 -0.2251582941564449 -0.1785924790027588 -0.2543634972485838 -0.3268788577930322 -0.2239542487071541 -0.2521919574336252 -0.1843914038460770 -0.1945850555572996 -0.1725882410232093 -0.1674773890866834 -0.1771125952424293 -0.1910741218894616 -0.1738429640797451 -0.1882427496727162 -0.2178990195689172 -0.2150452239895244 -0.1898115828051853 -0.1760839091093150 -0.1929067208340012 -0.1906862231198440 -0.1944248522513263 -0.1814566134447636 -0.1879631660926960 -0.2178223748749668 -0.2282369862630694 -0.1733457888294489 -0.2343476700150062 -0.1560272664872072 -0.1785491097794104 -0.2181607184893568 -0.2486274276613106 -0.2872992311786905 -0.2443182708985680 -0.1989912923365932 -0.2162808492312126 -0.1923302617616162 -0.1921098924657833 -0.1852404172001924 -0.3462967165461220 -0.2164038583759480 -0.2420216021883440 -0.2136782032529985 -0.2154272370003267 -0.2190788050749401 -0.2000870202324277 -0.4197752047655166 -0.1911051195516396 -0.2031149521032176 -0.1830059365609820 -0.1897310837144303 -0.2700190133297115 -0.2047597899041321 -0.1992826045894019 -0.2287168069163975 -0.1706182591175318 -0.2148969064230526 -0.1862288673009380 -0.2325569918078269 -0.2092312452338211 -0.2148794468928071 -0.1997758438707697 -0.1671378047585324 -0.09342141205080120 -0.2599033970989402 -0.1762863836401074 -0.2241401663365872 -0.3090063604117699 -0.2237310675906683 -0.1959038818592239 -0.1715682112546625 -0.2236205842913307 -0.2010320444190762 -0.2180090194067634 -0.2330906360756494 -0.1896114713801836 -0.2229820613217369 -0.1868762405232077 -0.2065661168042089 -0.1917965645984344 -0.1916814939138681 -0.1839524414724946 -0.2075437796584208 -0.1863615365581572 -0.2006935442133694 -0.1946063286521155 -0.2149338408598716 -0.1794533034613386 -0.2820622089211546 -0.2096711057145985 -0.2055562630197772 -0.2085751577745860 -0.1730433583604354 -0.1895574779185521 -0.1808857868468828 -0.2225712086945947 -0.1843669798920926 -0.2036593988460713 -0.1903263767527753 -0.1744710639659078 -0.2481780194749945 -0.2033026721499127 -0.1746850148631519 -0.3266495240632963 -0.2921006969370209 -0.3095982779170805 -0.2279098053258152 -0.1929236735342094 -0.2054074900424485 -0.2997451656333846 -0.1944933094210349 -0.2458041896107904 -0.1812614645781508 -0.2162574888031668 -0.2512161542391256 -0.2546304084334687 -0.1775566066718914 -0.2592900395991053 -0.1797418434628356 -0.1731163573509042 -0.2476724781833486 -0.2033419145227988 -0.1857347543797450 -0.2025578204516486 -0.2247985728837931 -0.2303029356357947 -0.1975011357003741 -0.1746975686319453 -0.2194147551263533 -0.2209512565898220 -0.1876497416425588 -0.2150265120544629 -0.2307493032217859 -0.1972912028698555 -0.1902690735168159 -0.1554165202953500 -0.1802032337189805 -0.2044810237304595 -0.2096418069119612 -0.1899249227135386 -0.2233371393003396 -0.1739450620248819 -0.2037080352280098 -0.2866645257745580 -0.1982067608036687 -0.2205248558519678 -0.2196860530241351 -0.1791153623010464 -0.1943290559314207 -0.1866896657816134 -0.2673569320899354 -0.2054711012638126 -0.1750427049233197 -0.1806736936253526 -0.1792856723271676 -0.2066382210554588 -0.2123094743976600 -0.2401531374899752 -0.2044436146251154 -0.2103153775514216 -0.2281330527873670 -0.1988983019555675 -0.2152370647939737 -0.2162057273977614 -0.2073565508902425 -0.2154250006334369 -0.2131015756265546 -0.2441224423941700 -0.2049591636830266 -0.1784552494230992 -0.1878710815433071 -0.2038483882791530 -0.2707284153231839 -0.1814774215063416 -0.2185947160496960 -0.1992738779444917 -0.1796782926850460 -0.1829852403351379 -0.1871920965591270 -0.2044923640215741 -0.1993929763648106 -0.1952043548868401 -0.1968461296716567 -0.2953964258966552 -0.2073225965177149 -0.1882539146391457 -0.2128753809728474 -0.1957479704095771 -0.2100071010749517 -0.2356636997974678 -0.1905312924887539 -0.2849989810648521 -0.1883834863746024 -0.2065796497437786 -0.1723943026380842 -0.1828391162138768 -0.1982357634740078 -0.2629626852802258 -0.2373313332202628 -0.2204940548990844 -0.1958404051303847 -0.2340546385881543 -0.2161259583324919 -0.1950205751077084 -0.2097634901317743 -0.1890089587801928 -0.1852965141197887 -0.2150209695343344 -0.2029651211634802 -0.1900825633003003 -0.2402472453488738 -0.1818991962163515 -0.1785382193767367 -0.2598141171657764 -0.4014156767244652 -0.2155139649444260 -0.2056483263982352 -0.2162053904787332 -0.1799715771927556 -0.2478808955613993 -0.1958102779054076 -0.2207791016091141 -0.1848817380497041 -0.2600770193954708 -0.1935445244242286 -0.2034286806724505 -0.1907740037907915 -0.2134320220603116 -0.2010479339481124 -0.2426955365114067 -0.2172949297510863 -0.3194792734895565 -0.2360695812255221 -0.1958970672978138 -0.2085763437414882 -0.2103931602033381 -0.2283493248569710 -0.1794249201567588 -0.2239031901109266 -0.1906919605398198 -0.1910416546425304 -0.2033375702372378 -0.2112584399818673 -0.1939372328765268 -0.3157584053935509 -0.2098477382788045 -0.2303602113525711 -0.2481127688098303 -0.1799466451796264 -0.1803927491249226 -0.1987412305104009 -0.1918529168812493 -0.2200226557414496 -0.2523988693321616 -0.2218489808755888 -0.2124575271467705 -0.2227025142403329 -0.2027120673914864 -0.2008485365975049 -0.2335297973119257 -0.1857756359881616 -0.2468169505415207 -0.1973035687778331 -0.2922636070398025 -0.1951821138201433 -0.3576395480982911 -0.2241292208326150 -0.2259126889486481 -0.2033427872340942 -0.2063971246513932 -0.2017788451303293 -0.2155813620038740 -0.2032546179217380 -0.2127853474816883 -0.2852859541839724 -0.2053169667715079 -0.2834290080848422 -0.2090819318212107 -0.2145008096886896 -0.2283231860193866 -0.1997329901804124 -0.2099726290472051 -0.2003500884750347 -0.2093899993915422 -0.2136751593308850 -0.1971169493257775 -0.1934015654264654 -0.2218214413290519 -0.2242078740527517 -0.2182082529681101 -0.2084928154946157 -0.2076129700026613 -0.2042499678018709 -0.2061041350545869 -0.1951301217295975 -0.2271063279330827 -0.2054172659927850 -0.2083488302544691 -0.1980615494926063 -0.2212262180074136 -0.2162472510414555 -0.2243785354627727 -0.2090975202269491 -0.2063618119668350 -0.1993030359497795 -0.2066306306477539 -0.2075498206253150 -0.2080189382949244 -0.2177061897931191 -0.2283656967077994 -0.2034397211956082 -0.2082958942858394 -0.2139887041785301 -0.2267247175512032 -0.2051184194659144 -0.2182860371680851 -0.2145921835606393 -0.2023060300437854 -0.2265850308762410 -0.2255125360791340 -0.2092628887483054 -0.2019902639031510 -0.2071056614840844 -0.2051828996483070 -0.2113361390469970 -0.1902882397433374 -0.2373104227409002 -0.2096251279006764 -0.2165207769988204 -0.1942736675115980 -0.2249056189747370 -0.2138452987626410 -0.1857848150569695 -0.2085025545467769 -0.2007127255335651 -0.2051714587194900 -0.1905270725052317 -0.1938331801631463 -0.2053343768899410 -0.2295684920860225 -0.1866258316748488 -0.1947456668062332 -0.1976167114716078 -0.2014363100047824 -0.1973791689018333 -0.2340145008977381 -0.2131839349745885 -0.2042180715131695 -0.2045095024802678 -0.1851144585550273 -0.2146076333565821 -0.2169050247911984 -0.2249863908148537 -0.2028905888156696 -0.2128530204112581 -0.2020625585941973 -0.1861111681216825 -0.2131258672892858 -0.2006801165934292 -0.1931691589978660 -0.2243062847250425 -0.2080633081178580 -0.2066360785146199 -0.2145779701891545 -0.1903593128308222 -0.1926001912789764 -0.1906587350546743 -0.2092537123548785 -0.2062298054523521 -0.2073564808610283 -0.1919156372107690 -0.1870183203920422 -0.1836372236253007 -0.1735776012717011 -0.2013427347238277 -0.1881273260707194 -0.2113382794464321 -0.2237081286702336 -0.2075623189550475 -0.2104371918713015 -0.1971738897448614 -0.2020387805850152 -0.1904076037399270 -0.1973123226459473 -0.2058732962763640 -0.2548398424077912 -0.1982660221140350 -0.2317858948830072 -0.2084554751801042 -0.2088127005981689 -0.2080495980471709 -0.1847222638514476 -0.2058159547127584 -0.2285433671999733 -0.2216831618747249 -0.1991094134075093 -0.2052343699420972 -0.2066691733948202 -0.2241287578207716 -0.2091968423788418 -0.2043492760180895 -0.1968655287519349 -0.2070724486790467 -0.1981726820967774 -0.1992561934220495 -0.2003195492047019 -0.1985328328760760 -0.2102285756614606 -0.2088944442621078 -0.2037101275500614 -0.2200654942135685 -0.2059101859729519 -0.2054896300561923 -0.2177925125939033 -0.2625209162737690 -0.2059850312266581 -0.2031671565971052 -0.2257334653639050 -0.2035642514226231 -0.2036261655452046 -0.2183614536499996 -0.2099182884203768 -0.2889178299543421 -0.1998829541150928 -0.1998912690724937 -0.2010007293438268 -0.2096353200383854 -0.2396288158119346 -0.2164314065504988 -0.2064252953483232 -0.2238445813113443 -0.2457365630876144 -0.2053637144573192 -0.2107948450402875 -0.2057970586528137 -0.2073027441653751 -0.2459243557610084 -0.2139556344834452 -0.2219073029014681 -0.2106991420426274 -0.2387993126002009 -0.2068732583804018 -0.2174274690906448 -0.1999718918077727 -0.2126993536566440 -0.2107466383064621 -0.2177041658948400 -0.2033175850457966 -0.1810648277629081 -0.1964236673436383 -0.1959484503280526 -0.2093483651715590 -0.2087496383361045 -0.2062861070822745 -0.2072395211982872 -0.2083846817518898 
-0.2558069753297685 -0.2008016956600087 -0.1792770997055057 -0.1239662340368448 -0.1739622796771655 -0.2204038426856917 -0.1701349816666367 -0.2035538988173405 0.01449143287143571 0.05464688661596034 -0.2043482333432652 -0.1957839617868632 -0.1710376206422989 -0.1732446523357299 -0.08864938909504705 -0.2261364918364503 -0.1967734272858341 -0.1921705387140927 -0.1824342289826249 -0.2684300677793884 -0.1837892925736079 -0.1899983230771747 -0.1739224542256417 -0.1748949168868804 -0.1816575563544114 -0.1521163979921663 -0.1783543965418229 -0.1811376354923077 -0.1806734756372034 -0.2004455680831716 -0.1762106349498614 -0.1760310726492381 -0.1753577087401217 -0.1495067949902063 -0.1708443093154011 -0.2020778292754703 -0.1571025364838852 -0.8639198732361539 -0.1796271010125558 -0.1736500155564103 -0.1339779174651092 -0.1797395807541460 -0.1789265208479197 -0.2624169018770081 -0.1836529704690956 -0.2594943117076942 -0.2332572268420432 -0.1783364710029526 -0.1839321318309604 -0.1923308939435083 -0.3365640604317817 -0.4068010602065224 -0.1738080157620493 -0.1154342539196549 -0.1864137447450513 -0.2164744732018772 -0.2538930530609661 -0.1719153150172119 -0.1954632226278697 -0.1768543785385290 -0.2487989304436715 -0.1747637296691858 -0.1334578646247212 -0.2357946899969632 -0.3869760891944403 -0.1734824871045798 -0.3551465323056265 -0.1998444366611507 -0.1842582744713595 -0.2250766335983203 -0.1984926062257331 -0.1766240826642989 -0.1316797215627233 -0.1428293441923537 -0.2773656720018256 -0.2837048718750795 -0.1757647838231636 -0.1738905167125933 -0.2171125594776528 -0.1651036069244694 -0.2095949326875830 -0.1797768011822445 -0.1552381927058488 -0.1783709388019718 -0.2345805416073803 -0.2171930268933915 -0.2984703457037481 -0.1766119771670904 -0.2851227062306900 -0.1757385169175054 -0.1908906841656358 -0.1765617676380762 -0.3521215323543119 -0.1990072336376453 -0.2099977083240469 -0.3142523702700551 -0.1736664218232564 -0.1702371256023485 -0.1694760477296349 -0.2000078153701659 -0.1663065854241924 -0.2493394423998797 -0.1396953731406959 -0.1695352517166670 -0.2139242217979449 -0.1653081988019587 -0.1483418657086378 -0.1972362207278602 -0.1726421445812044 -0.1824562891598179 -0.1958255890658184 -0.1737696522995537 -0.2043777314065435 -0.2483362877229281 -0.1766081031743841 -0.1799933576227286 -0.2554968658444413 -0.1854159994990360 -0.1895357197126219 -0.1778659561208809 -0.2081476295117447 -0.1837487175381812 -0.2282412475109072 -0.2024861559768176 -0.1773441225497608 -0.1823224432833940 -0.2208240292713795 -0.1653789670668896 -0.1987061904940248 -0.2036108604402013 -0.1676227509546290 -0.1946550065408565 -0.1744898354218601 -0.2330420383331067 -0.1862614081696132 -0.1929118774605217 -0.2295439378073206 -0.2328164880909596 -0.1749640351807418 -0.1790636916800432 -0.1720663988603219 -0.1952944644957058 -0.1745143572328579 -0.2266078573206238 -0.3800608716609074 -0.2277731199254631 -0.2494911966341423 -0.1800377098666058 -0.1811826276455638 -0.1725703783321021 -0.1677513692577105 -0.1764125560334119 -0.1828298148937755 -0.1693731181756222 -0.1850078557019154 -0.2127003851705641 -0.2048500317411826 -0.1874830727312140 -0.1753170042005991 -0.1916393377156733 -0.1936217683192985 -0.1924792824491392 -0.1725720179734095 -0.1838465836579593 -0.2230469591929985 -0.2037162133123356 -0.1740755467296517 -0.2339070451121629 -0.1529582522856972 -0.1797239803340572 -0.1902855557244775 -0.2431251909626391 -0.2740922086130454 -0.2398792381871984 -0.1866455760389116 -0.2132942422415970 -0.1810257581158811 -0.1889127525894839 -0.1802349838546098 -0.2537094652603933 -0.1993905298123653 -0.2904642193222597 -0.1957055025076188 -0.2159157705220507 -0.2076754210367554 -0.1956772441136770 -0.2583712040931800 -0.1869701539445769 -0.2003375553742046 -0.1861061768843951 -0.1790825288850634 -0.2825635271328313 -0.2044625673188860 -0.1989739620196765 -0.2273689464231918 -0.1705574854917081 -0.2010999361125062 -0.1810717303374854 -0.2319933053120635 -0.1995145228652091 -0.2052695875578131 -0.1999637059434051 -0.1723682335651946 -0.1272863753642732 -0.2540946226606315 -0.1753432185190082 -0.2376883763498645 -0.3006335034118502 -0.2145614234464394 -0.1941959211846036 -0.1695861728086644 -0.2167522689380738 -0.1963402213604245 -0.2018549775034917 -0.2148989572789103 -0.1902371835261291 -0.2195642970707478 -0.1811326906983010 -0.1985822822329398 -0.1944715499715387 -0.1927874163518742 -0.1836968998741012 -0.2002636514688235 -0.1849835263557146 -0.2010511365672282 -0.1949460015657585 -0.2040649414001063 -0.1779489315648806 -0.2995760864630739 -0.1992430246839216 -0.1968065624601747 -0.1993715851637578 -0.1739921751170397 -0.1787911121273586 -0.1746410464223263 -0.2017842503018788 -0.1773161479076917 -0.1932022749567445 -0.1860774870702142 -0.1748634904809094 -0.2271733103353963 -0.1935989735867569 -0.1709213182670189 -0.2617325898784457 -0.2443300164441720 -0.2200431355264661 -0.2254144510334859 -0.1978690784252642 -0.1885500452950353 -0.2575858608557402 -0.1916651509412022 -0.2393102276625083 -0.1802641712868992 -0.2018797308501593 -0.2238310220093504 -0.2207286766247457 -0.1748175979439569 -0.2359608317731064 -0.1863131263109274 -0.1752009679406236 -0.2321242060229648 -0.2000485316032959 -0.1878855812066672 -0.1896676324768217 -0.2245280807468146 -0.2261987649984817 -0.1996470167413128 -0.1727476486703267 -0.2137798745061108 -0.2270442139778133 -0.1820359618922523 -0.1993576876187071 -0.2069825078078590 -0.2037679943706292 -0.1875949559063272 -0.1642806006534977 -0.1859068688927084 -0.2050734344199217 -0.2044185186051211 -0.1811773931070569 -0.2077081547795742 -0.1721975124440509 -0.2009583490684566 -0.2861689294065644 -0.1946183473453556 -0.2099854631453635 -0.2218377133414793 -0.1808047063793131 -0.1917257801780599 -0.1803591158065726 -0.2677836076582520 -0.1960895510745703 -0.1754063003115841 -0.1829280935283225 -0.1800658498380295 -0.1955290531418956 -0.1904089116476074 -0.2403395858938631 -0.1473203515715818 -0.1998861569838527 -0.2368637853116238 -0.1880732475980535 -0.2039828201047245 -0.2048941151124318 -0.1979190333688329 -0.2052638530564564 -0.1940436701466142 -0.2087116058266582 -0.2050204370914321 -0.1766894486304370 -0.1825722241603869 -0.2021801334193920 -0.2709215958385571 -0.1781120619043599 -0.2086436924002142 -0.1996094471038924 -0.1797828560013969 -0.1784669736682607 -0.1849855817728157 -0.2052269063590260 -0.1961902129522556 -0.2040692556858128 -0.1943845618015723 -0.2948560512978549 -0.2071317812189618 -0.1874550371221377 -0.2048544028676128 -0.1964848392023176 -0.2081027669822132 -0.2396080022254281 -0.1807574477966211 -0.2515216635694161 -0.1772260317677320 -0.2055864885270989 -0.1734531863108460 -0.1818129384398535 -0.1937915367898862 -0.2611990888021684 -0.2394344205896798 -0.2320853302663575 -0.1952402351611357 -0.2426684874717107 -0.2096158474892708 -0.1963075046619699 -0.2037449189851028 -0.1903820962645235 -0.1879655076971259 -0.2143835157762535 -0.1974857290145090 -0.1895586871075445 -0.2140961899811426 -0.2855296450826002 -0.1782769965621217 -0.2515101308596858 -0.2424126782419862 -0.2075667829254618 -0.2026038159974266 -0.2150959510414545 -0.1801780307861213 -0.2492118845402809 -0.1961027285687794 -0.2230060429343984 -0.1845965317467337 -0.2232759474528042 -0.1930256539749116 -0.1929829545051762 -0.1855334675631144 -0.1966600551026148 -0.1909962262854974 -0.2172830077694856 -0.1982798688152618 -0.3190384709242011 -0.2187555607096788 -0.1898912029254158 -0.1993718336692689 -0.1968891661155100 -0.2173957357000357 -0.1769421803102556 -0.2196534520539596 -0.1923057924719227 -0.1882392819289388 -0.1928264612407672 -0.2111628276135821 -0.1940814458855203 -0.2725476470931733 -0.1973770108156870 -0.1952326973143536 -0.2127847246418060 -0.1789697798511302 -0.1774657728017370 -0.1973618810051853 -0.1898215638411816 -0.2066799266268468 -0.2185541212380171 -0.2145762121028797 -0.2003200384403920 -0.2095245089843610 -0.1869656993595258 -0.1923370685366619 -0.2138568369783586 -0.1820262506150472 -0.2406462248803771 -0.1956303910682435 -0.2642351375455479 -0.1980857427829690 -0.3549975397642335 -0.2155750473708917 -0.1968762223869746 -0.2046225056326284 -0.1995102585543173 -0.1949384067125192 -0.2144767567771923 -0.1985407640850158 -0.2043720771735514 -0.2488794484773249 -0.2089080517512124 -0.2501497960606124 -0.2037558613193930 -0.2159256191866640 -0.2275426070185641 -0.1945931422051797 -0.2014896010838486 -0.2184669747276366 -0.2081805149369452 -0.2076439854250692 -0.1968659985519153 -0.1928129668985723 -0.2199753539681111 -0.2179075780887805 -0.2183564946193972 -0.1971608728970308 -0.2066932761608044 -0.2021224209130437 -0.1970099638391045 -0.1959714910188751 -0.2149834523455053 -0.1982026288780651 -0.2002860205890445 -0.1929290173996870 -0.2083638821450061 -0.2084051556247877 -0.2066851527870021 -0.1995532412722477 -0.1971335293988940 -0.1967795965932773 -0.1979315293119734 -0.2012548827434546 -0.1975154270645661 -0.2166833281250445 -0.2084558994232829 -0.1972381087289124 -0.2010275692472747 -0.2089153795595426 -0.2175614778250123 -0.1973464275664705 -0.2062525287319595 -0.2147869827386446 -0.2026659091216918 -0.2077007987304582 -0.2056869558349971 -0.2002763813340881 -0.1911239008484224 -0.1964900093856103 -0.1979353570956159 -0.2094414990331711 -0.1885076760118429 -0.2168069683691000 -0.2039127479318733 -0.1929776951561204 -0.1950656833619912 -0.2089033932360847 -0.2166593051347799 -0.1790560622656815 -0.1968989774917383 -0.1903073049856272 -0.1969254195503599 -0.1877074747714485 -0.1937266477525857 -0.2042346817861719 -0.2119414343120496 -0.1869563365324955 -0.1942793543074108 -0.1961849570853134 -0.2026595744538712 -0.1959936743439792 -0.1973671382227195 -0.1980137589520102 -0.1972121149394790 -0.1969163969858912 -0.1823503558696875 -0.2041210714694890 -0.1988450594277528 -0.2281480300990226 -0.1981633851368054 -0.2071611012177389 -0.1983696178828118 -0.1854533325399795 -0.2123828664113362 -0.1968285276506209 -0.1898442087362017 -0.2102615173616179 -0.1979162344753601 -0.1975856166424709 -0.2044181586464340 -0.1875584532050239 -0.1910814121982789 -0.1869165250812440 -0.1931464456508140 -0.1968385465182786 -0.1994968909521788 -0.1811154922197520 -0.1817193278732981 -0.1749878547207859 -0.1726997414159430 -0.1874250035281474 -0.1810107383911254 -0.1956358832895900 -0.2036170492137251 -0.1955951111513598 -0.2010370617130977 -0.1958514948884613 -0.1974454596310861 -0.1777684073809084 -0.1950217805840813 -0.1967250167708878 -0.2188205524599071 -0.1983284843707628 -0.2050476754979547 -0.2070932192625911 -0.2014493871060772 -0.2027927018614973 -0.1853147681680397 -0.1955096162845121 -0.2111061310048105 -0.2098113887548617 -0.1931991227971459 -0.1971273423473570 -0.1989944114617981 -0.2038935823910994 -0.2059678633668312 -0.1969419110348911 -0.1918382909596518 -0.1996047694373781 -0.1932445564307541 -0.1935642463026307 -0.1935881582671494 -0.1939292054523396 -0.1902142592919915 -0.2010659423906538 -0.1967205114273431 -0.2086945200517512 -0.1980439320249803 -0.1980548256281788 -0.2041424991461877 -0.2400482409399504 -0.1976273799187131 -0.1998697747973270 -0.2125128053588482 -0.1959641435828253 -0.1989543871201068 -0.2059747625786495 -0.2030002607913735 -0.2615366246385406 -0.1966586357646566 -0.1940827999861619 -0.1976445884939432 -0.2011798382849531 -0.2262961729796092 -0.2033023652622024 -0.1987564673710806 -0.2034481018755256 -0.2143385824007120 -0.1979560973233543 -0.2039846309703629 -0.1976191289026913 -0.2011891147325804 -0.2204865352323853 -0.1964715425195260 -0.1958776810814912 -0.1945716649370826 -0.2108471312586488 -0.1978532754069355 -0.2039639777971082 -0.1981391314383350 -0.2049640600069160 -0.2003872772302715 -0.2032429256551423 -0.1963573970278777 -0.1797073623694561 -0.1920873907208573 -0.1903021509428053 -0.1970865988621788 -0.1977643943203410 -0.1978088429870418 -0.1975786199246265 -0.1976005015591550 
-0.2224484754295152 -0.1977778629025046 -0.2038478746549304 -0.2340046569589558 -0.1761551538038660 -0.2138788604790524 -0.1709271436127310 -0.1485370213099509 0.02415795182805901 -0.05606309469498164 -0.1910551312927972 -0.1581958522230733 -0.1721402070610797 -0.1569226416160059 -0.1614965820992922 -0.1647086445302575 -0.2100776210648865 -0.1821241744240618 -0.1845496255971140 -0.2643276582970634 -0.1814386545258006 -0.1876851320515530 -0.1756128113948507 -0.1758820862395548 -0.1839160095856511 -0.1364558623885698 -0.1826976676347524 -0.1672332921928495 -0.1833263208714653 -0.2347709768741545 -0.1815630087638277 -0.1784314276283011 -0.1757802757756082 -0.1329386019658972 -0.1784094176266908 -0.2131972384516454 -0.1916533623781884 -0.8252222909076639 -0.1801139968278303 -0.1733418630467193 -0.1603237471976481 -0.1798728204626894 -0.1793388403048017 -0.2782204559489878 -0.1765194718207106 -0.2186597953900580 -0.2323133850108587 -0.1788943927867082 -0.1723081051876285 -0.1689450052738347 -0.3420885826467904 -0.3836080220362449 -0.1741167739107884 -0.1226104517281599 -0.1799566746091936 -0.2016673025501473 -0.1882136019845620 -0.1713074042274071 -0.1835590630853619 -0.1755234286136325 -0.2977689045347979 -0.1763845275967487 -0.1553332632647064 -0.2193968563943364 -0.3632262224239356 -0.1765737291304414 -0.2829658700977659 -0.2002294644643849 -0.1827341426443309 -0.2308041267881546 -0.1903095031856433 -0.1886434405331985 -0.1577579778094176 -0.1485784619292555 -0.2936654686634890 -0.2379669640918644 -0.1759368445068573 -0.1700808131729418 -0.2012523144508139 -0.2025940084491157 -0.1217604624972185 -0.1791255868076611 -0.1506202637629686 -0.1777769506779005 -0.2415776376079681 -0.1964097589981610 -0.2782604685141996 -0.1764846808275341 -0.3224815372239805 -0.1730939872350235 -0.2324079364965576 -0.1752375567510378 -0.3628687459335926 -0.2000737913782486 -0.2076677634983484 -0.3199046609857325 -0.1797318457849277 -0.1712878181528016 -0.1750315796448338 -0.2137219748338603 -0.1642323127642947 -0.2428941537763919 -0.1711111724076681 -0.1686767455088888 -0.2119436488570684 -0.1737594936131238 -0.1550701695375618 -0.1843458472509141 -0.1710527100755349 -0.1799444574027750 -0.1903482998213444 -0.1734823967604454 -0.2122795971325240 -0.2408418843510099 -0.1833718799099819 -0.1784616228719742 -0.1724766801556045 -0.1844439228161700 -0.2005921769027809 -0.1750175319546017 -0.2022021035927506 -0.1828412168572011 -0.2175310412511542 -0.2008485751303429 -0.1939379850266184 -0.1769602197679472 -0.2218894005034402 -0.1709083942183587 -0.1951763958244843 -0.1977216005034311 -0.1783945183254149 -0.1843472885836077 -0.1723341977785176 -0.2356799137147112 -0.1856761557780028 -0.1825414192963597 -0.2084854514975923 -0.1947649277332070 -0.1732254110336291 -0.1807474685578844 -0.1681366430970971 -0.1780843940943776 -0.1729971607250023 -0.2677287272551717 -0.2893276082510816 -0.2253803108503732 -0.2391843246535054 -0.1753286899472721 -0.1758229077246421 -0.1724992736159494 -0.1712646924483071 -0.1749262877637325 -0.1814995568529131 -0.1712180517318656 -0.1800684471327324 -0.1994674168004816 -0.1934266110979603 -0.1851906394656843 -0.1741268013803113 -0.1879439654004140 -0.2019540227787172 -0.1943402559555510 -0.1688866895682200 -0.1763534960582733 -0.2180335154784291 -0.1971815148770868 -0.1730245812547736 -0.2314982448427773 -0.1679201942549113 -0.1859102919551516 -0.1951518555061800 -0.2186218882255343 -0.2374913513653075 -0.2628770667473669 -0.1840446564842259 -0.2044165005098072 -0.1925722711602556 -0.1855827306881784 -0.1731307457778733 -0.2501900059817350 -0.1975448771910202 -0.2741818914968924 -0.1838101342763341 -0.2196232482328208 -0.2070613393077006 -0.1877398070673416 -0.2593380563993212 -0.1868411503282183 -0.1912537138718522 -0.1841174430212908 -0.1736103889622213 -0.2448460820748891 -0.2038283109945504 -0.2024316457523130 -0.2179087274297922 -0.1728948830967460 -0.1931607644203014 -0.1768308369621669 -0.2326859383404084 -0.1904929712345085 -0.1903683262615709 -0.1940575392560059 -0.1757327874081609 -0.1616421637551079 -0.2292235657911959 -0.1731709238847371 -0.2108211601160076 -0.2938702164203901 -0.2123784946463548 -0.1918038519637500 -0.1707167009542088 -0.2105439841643224 -0.1972068334677468 -0.1926135847226421 -0.2131618180453529 -0.1870929774683189 -0.2044868241315395 -0.1802549843602578 -0.1905363190067851 -0.1985253413116765 -0.1914349290439896 -0.1819719890878218 -0.1917697662834402 -0.1873233998562139 -0.2003321724936059 -0.1886944878393796 -0.1937568334249764 -0.1759229761227218 -0.2641573723999751 -0.1909273307663561 -0.1954197162261017 -0.1904742664098652 -0.1743976215064685 -0.1905722195368768 -0.1775603746243414 -0.2028249207702395 -0.1738077297758606 -0.1895844245855019 -0.1825394388521105 -0.1749418437891280 -0.2084600019462213 -0.1886835049006657 -0.1704938560709425 -0.2578512885584743 -0.2409739404208177 -0.1816292456797880 -0.2315857042629118 -0.1942825301829449 -0.1902262580552446 -0.2149119034226624 -0.1835502310243076 -0.2225577722198188 -0.1800873281353168 -0.1942308033070199 -0.2115090719140950 -0.2104221891235925 -0.1728330175821033 -0.2009196482842872 -0.1880716818573442 -0.1750066778764368 -0.2223209173747422 -0.1907054604566248 -0.1835636938472134 -0.1877859060737177 -0.2225909346378018 -0.2097546086846396 -0.1825907211687880 -0.1737281684338151 -0.2099620221276180 -0.2089905563984371 -0.1838833785969221 -0.1837732275285507 -0.1937569364483854 -0.1916109409389046 -0.1884104365194744 -0.1734080555624500 -0.2120342552314045 -0.1958207572402046 -0.1946846804554782 -0.1802851027416719 -0.1972130670718008 -0.1722845864947708 -0.1923667014280251 -0.2873250986118325 -0.1907964610162767 -0.2002014118966708 -0.2308788551643400 -0.1766385712037945 -0.1861472972128723 -0.1761798649295162 -0.2723553259895702 -0.1904578595972711 -0.1725627795292647 -0.1799018419343340 -0.1792119125097388 -0.1901884103757902 -0.1874162217836646 -0.2392666521702332 -0.1536329602444503 -0.1910377804659607 -0.2003506187608474 -0.2011653579116793 -0.1939408645824659 -0.1940211463792937 -0.1934285011439758 -0.1939149238434247 -0.1905405653363676 -0.1949820097065742 -0.2032866179743049 -0.1728714998537437 -0.1855040759912068 -0.1912752443270422 -0.3506715449355079 -0.1780949102514345 -0.1953371288653515 -0.1909576515828331 -0.1817065734133395 -0.1763174977550586 -0.1836370167934957 -0.2069689825090782 -0.1910291409380396 -0.2096244415167952 -0.1982256824565694 -0.2781597169054612 -0.1963024303839817 -0.1851788588898420 -0.1940959717680265 -0.1948714479406341 -0.1964797292241375 -0.2218781050728307 -0.1801685809053891 -0.2491638916513844 -0.1770020228008240 -0.2003898170959928 -0.1734591168187051 -0.1812880468872008 -0.1907472015260413 -0.2766432944140511 -0.2252748089440934 -0.2083670935821898 -0.2278259017959571 -0.2232654012261205 -0.1973550461800408 -0.1947471434267302 -0.1999412749290860 -0.1902380624764163 -0.1895224457013931 -0.2269059407730647 -0.1895100703751418 -0.1865650495438821 -0.2084399954753145 -0.2667926893448601 -0.1766009138672579 -0.2329338280206232 -0.2608396869874822 -0.1966044151951839 -0.1909716028445407 -0.2140705715733648 -0.1790637644278375 -0.2458653929152313 -0.2078509417995333 -0.2080656324290997 -0.1850720612066540 -0.2217737343790308 -0.1932933250388568 -0.1901782767101986 -0.1833439407764944 -0.1955967498495142 -0.1921077939584018 -0.2132337586998106 -0.1937978010710982 -0.3147132812019691 -0.2098191869291097 -0.1871945842122986 -0.1904747415242921 -0.1893881291267123 -0.2032346760741783 -0.1763064619085708 -0.2177606268162905 -0.1840300832642661 -0.1862652569301680 -0.1886263644944051 -0.1963648646078945 -0.1913759358673426 -0.2529594931359314 -0.1896742297428720 -0.1979125805602889 -0.2052728617041864 -0.1773391825387756 -0.1752963713302227 -0.1980170586338407 -0.1874064840726485 -0.1943349875161179 -0.2122516027890981 -0.1981628558074992 -0.1931815048052410 -0.2123719433713573 -0.1802565459652162 -0.1892838977024213 -0.2004736911108762 -0.1831984389181043 -0.2020105539409956 -0.1888017986654120 -0.1918223347832600 -0.1911564838855483 -0.3337122002012476 -0.2062214894013159 -0.1922110873256735 -0.1997038587942187 -0.1952050636248410 -0.1882115311297094 -0.1966214006326859 -0.1903472177736769 -0.1940400923178209 -0.2580373040798995 -0.2046094093899873 -0.2361702667638002 -0.1930655692480491 -0.2108015891717195 -0.2239661611928231 -0.1894469138509183 -0.1942597484341899 -0.2007507896377743 -0.2037320616354950 -0.1942717758897490 -0.1951806018599746 -0.1911045572079743 -0.2091884143412169 -0.2044051461783244 -0.2005293486729974 -0.1901668435985070 -0.2011384358878452 -0.2011562767182089 -0.1900828330862628 -0.1924364221139584 -0.1997408121023699 -0.1901649861299585 -0.1921826433209126 -0.1868538165921198 -0.1954125202998535 -0.1984084462549515 -0.1944479417548676 -0.1907828416560020 -0.1899097410832000 -0.1898003839842996 -0.1901303683227410 -0.1923175588863328 -0.1904535750727110 -0.2114771622487465 -0.2026301985584548 -0.1900620468194470 -0.1920492769101485 -0.1994602832445371 -0.2032392067791451 -0.1900108875388910 -0.1942344011755088 -0.2081247313111498 -0.1903084224607364 -0.1966012868630529 -0.1899410018588863 -0.1918598073011067 -0.1901640866285696 -0.1903525658490810 -0.1908701155163688 -0.2051465913794249 -0.1861714461131537 -0.2034684620699900 -0.1925292221375334 -0.1896492201775969 -0.1899994555931907 -0.1968194732590488 -0.1981925504431016 -0.1755411105888047 -0.1895674304198746 -0.1791958812249763 -0.1901940947947364 -0.1833983542923456 -0.1891750313671095 -0.1923928403492999 -0.1871305704600128 -0.1861298433040093 -0.1910216554760383 -0.1885751965477062 -0.1951597098640863 -0.1876808143893269 -0.1934836353758765 -0.1916127736208516 -0.1944455898852688 -0.1901105660999569 -0.1843175417422518 -0.1946143697395371 -0.2059141020648805 -0.2151311676564242 -0.1900714510553411 -0.1884758461052316 -0.1897734768835282 -0.1863139795485381 -0.1997879632626642 -0.1872453762862302 -0.1866627501270126 -0.2004919926244932 -0.1916967751064778 -0.1901643458255862 -0.1896297253816082 -0.1858134805403069 -0.1880863074630620 -0.1809280908660510 -0.1901463205835168 -0.1905968521343783 -0.1948691692701982 -0.1797927532582827 -0.1739522589034265 -0.1692636743126986 -0.1728407820492491 -0.1850555565630550 -0.1820753065284131 -0.1911182815631654 -0.1939907996025363 -0.1816541073029149 -0.1985340525111656 -0.1872602599824241 -0.1898208653954386 -0.1731371906042279 -0.1870236012197747 -0.1899541370792620 -0.2122412725848138 -0.1912918881355072 -0.1970056646322248 -0.1946899733133871 -0.1919651829300866 -0.1932911311663771 -0.1842882923093467 -0.1897582037714544 -0.1989768847584716 -0.1965523095500084 -0.1867014376081361 -0.1902203432651009 -0.1969463781856374 -0.1920114797436978 -0.1928638050812115 -0.1903184311871840 -0.1881045836166020 -0.1901608623072356 -0.1879180136333324 -0.1873133705268037 -0.1894615212844125 -0.1890895563509810 -0.1833849710895983 -0.1913327912083299 -0.1900303919876856 -0.1925853512524842 -0.1910120875991440 -0.1912718958358221 -0.1880664864295651 -0.1870452027606283 -0.1903446246518470 -0.1905172178881286 -0.1994607877622335 -0.1879372631621517 -0.1900941264615075 -0.1950357538689974 -0.1925872708990437 -0.2292775436508751 -0.1895587146813537 -0.1880652344760953 -0.1893088266504615 -0.1921145042662937 -0.2046891441696968 -0.1936422290151065 -0.1907712091501702 -0.1947864875126394 -0.2067433345753970 -0.1903922628929018 -0.1966159582415783 -0.1908496408464145 -0.1911517156111887 -0.2058845208399051 -0.1938906241556874 -0.1919276037755642 -0.1932897819361675 -0.1924103492663583 -0.1899376568008628 -0.1937445149144427 -0.1908692833678441 -0.1942697359885777 -0.1909774843853020 -0.1941831915241136 -0.1888795355310004 -0.1779175937057509 -0.1884463607009742 -0.1834285395679467 -0.1900377572608033 -0.1902321739746261 -0.1908662653086963 -0.1908453033960108 -0.1901102657569815 
-0.2119802459099349 -0.2018130042126580 -0.2215807593276673 -0.2996371467178768 -0.1823553216451910 -0.2206178468309017 -0.1723662183794628 -0.2216249387894647 0.02602091214393040 -0.1956402755068205 -0.1944982086634402 -0.1621904973830633 -0.1653186045996987 -0.1415098556798679 -0.1857114563350975 -0.1018586112171653 -0.2090823050034499 -0.1784012748378428 -0.1984766821550980 -0.2323601909120630 -0.1886582671416244 -0.1870674078579303 -0.1724186153596078 -0.1757274196304625 -0.1829263726333235 -0.1315798116836051 -0.1924456864965367 -0.1643935335482808 -0.1739097240793018 -0.1579060461818732 -0.1858785922044538 -0.1764357411933609 -0.1761796939448953 -0.1454546848292520 -0.1939592882086774 -0.2375964265521334 -0.2129377578204505 -0.7602251992054260 -0.1760786886385072 -0.1746711207633271 -0.1793028525832255 -0.1826331845092532 -0.1769075092342863 -0.2107181617242482 -0.1805073075968874 -0.2146297962727658 -0.2434307938210077 -0.1783194517394157 -0.1707021869748864 -0.1542814656656650 -0.3593992203027958 -0.2775286282593969 -0.1712001122137236 -0.1090451397962873 -0.1760791400522782 -0.1951463317486223 -0.1931081983303144 -0.1718525114916092 -0.1756337966294702 -0.1751784846501915 -0.3723171293701760 -0.1768744066784793 -0.1476818582237203 -0.2049922939656439 -0.3439692349573121 -0.1738160614646679 -0.2150078087712426 -0.1923629562342529 -0.1706626267883235 -0.2246579315700604 -0.1900812146383045 -0.2010681854545445 -0.1751644946528954 -0.1501900885641059 -0.2187157631595692 -0.2279572541167726 -0.1741755638742151 -0.1636395125219022 -0.1877924093424023 -0.1864040739899804 -0.1177809973842586 -0.1785648221264477 -0.1374730410892961 -0.1775526242490437 -0.2421647872645895 -0.1875213765992246 -0.2491546296022069 -0.1748271560271094 -0.2734940314079265 -0.1681969212039770 -0.2516329200635647 -0.1722990125709976 -0.3782602327927721 -0.1910781963984431 -0.2050766744990599 -0.3430874458307844 -0.1787264358524458 -0.1677987239455178 -0.1813851894778157 -0.2057129087539949 -0.1677406574635885 -0.2406070123006009 -0.1825963732135829 -0.1657410275419351 -0.2172480199475196 -0.1901423345743232 -0.1584600719741178 -0.1870923103920168 -0.1733280325967624 -0.1786273268624196 -0.1813264871535302 -0.1710472499398750 -0.1910401920638125 -0.2721341248683269 -0.1897524322827813 -0.1768688822636387 -0.2009300916055437 -0.1837980671950516 -0.1810512391835263 -0.1703080376043376 -0.1955731451293399 -0.1778433567379697 -0.2103698612699924 -0.2129596692454044 -0.1998789916616665 -0.1757894557098975 -0.2052102334280192 -0.1707004483739361 -0.1734402670144583 -0.1892441713036669 -0.1763766794966252 -0.1818321756109960 -0.1704271088603409 -0.2741200800996764 -0.1915465248006681 -0.1854222216306422 -0.2079844917871797 -0.1770595284691296 -0.1731389054969187 -0.1827752760241012 -0.1734666541174101 -0.1732448218737576 -0.1722124947690006 -0.2038277316803333 -0.2220942288910840 -0.2330132978926615 -0.2412226726384977 -0.1768032274981125 -0.1865571310693925 -0.1735592139439023 -0.1750232889385851 -0.1708021856122317 -0.1824874309334498 -0.1724343401971875 -0.1753400546444231 -0.1815104122593750 -0.1863345897226778 -0.1794923337143666 -0.1716415416298953 -0.1835572514981967 -0.2070307256464682 -0.1949508791535481 -0.1693421967568721 -0.1808571204241746 -0.2018199819838414 -0.1893028096949267 -0.1768361676299532 -0.2286665534787657 -0.1865779448089989 -0.1774432456188491 -0.1936702013737084 -0.2073923936144689 -0.2488027722734076 -0.3033327403602230 -0.1741832178994042 -0.1906706467008171 -0.1701718014827517 -0.1821239681110424 -0.1681831633835002 -0.2197614250143626 -0.1886266143860621 -0.2898699622882209 -0.1833420117024923 -0.2073809468395955 -0.2011318566663967 -0.1821733794988545 -0.2841923172488243 -0.1817173377278912 -0.1854865230183365 -0.1804659225070254 -0.1756938518648958 -0.2226934827922292 -0.1995992054321679 -0.1969949028169454 -0.1929073634833265 -0.1740284249624741 -0.1850200808187906 -0.1784166658330671 -0.2289015913026692 -0.1855167029911171 -0.1882628179316155 -0.1899079101065307 -0.1761068757361429 -0.1806538796417277 -0.2073616610863805 -0.1731039073647118 -0.2077887877030930 -0.2869286077052348 -0.2338712597374640 -0.1851075682303663 -0.1683027669804563 -0.1962493018481137 -0.1888504797354207 -0.1800534660598803 -0.2067697262424731 -0.1867443717083912 -0.1924061649550287 -0.1758162725784472 -0.1886454779012416 -0.1896377825179774 -0.1880525421148312 -0.1831043929737835 -0.1857488623905709 -0.1855403681584537 -0.1956052594087348 -0.1872433778618065 -0.1873568193423770 -0.1745053113614783 -0.2352880032575595 -0.1848819652184948 -0.1865822954496817 -0.1850840471117174 -0.1743867879083884 -0.1765622939666233 -0.1726461678178644 -0.2260574725798165 -0.1733958116359269 -0.1835005774990813 -0.1709200086986432 -0.1737965679923516 -0.1675630084123007 -0.1833372848525525 -0.1677100682377409 -0.2283636149689598 -0.2054445545271380 -0.1883116448038939 -0.2670723509779633 -0.1901929097145258 -0.1781776533176123 -0.1701981459902012 -0.1808003882995725 -0.2069315733071562 -0.1773069818307330 -0.1799796611011258 -0.1985577428163670 -0.1854834382664442 -0.1699661364101799 -0.2042217284754714 -0.1809627973156105 -0.1795764574682509 -0.2187898873939833 -0.1849256974106987 -0.1726466712828563 -0.1812821937827680 -0.2145697595165079 -0.2007716197711195 -0.1731426236404185 -0.1777894971760291 -0.1982086448888200 -0.1942871629996541 -0.1784542543064039 -0.1835694423639829 -0.1857118791211371 -0.1835155636802924 -0.1814103569430850 -0.1656746949894343 -0.2537241545139555 -0.1860869101183898 -0.1864844888286047 -0.1757551049208258 -0.1870697148711542 -0.1686540486091716 -0.1795531592317522 -0.2655272091479863 -0.1781402386223840 -0.1922851580490670 -0.2217880510781765 -0.1732619383282738 -0.1847950806622247 -0.1716874346625955 -0.3273931419262661 -0.1843332907332161 -0.1706363570517838 -0.1792084533227840 -0.1778880675005896 -0.1839366020060280 -0.1831111876216582 -0.2343948161260461 -0.1739977288865556 -0.1848121013678866 -0.1968534908436131 -0.1893745636380514 -0.1871881992193676 -0.1866519838490504 -0.1865179163722443 -0.1872426988299429 -0.1833832676783894 -0.1898605538172467 -0.1937160455969627 -0.1679448629748150 -0.1803542969994142 -0.1858454107749567 -0.2511394818274605 -0.1781335780324973 -0.1898653688467293 -0.1851693150744354 -0.1824165888501158 -0.1767981060594735 -0.1792976608661125 -0.1989475241971017 -0.1846066899626119 -0.2015692553324423 -0.1930719960381689 -0.2746376941744356 -0.1901070182530299 -0.1818903043759206 -0.1864495885945721 -0.1895012704373590 -0.1882401755178318 -0.2138593354271320 -0.1752022832520379 -0.2320145631076825 -0.1818963669661110 -0.1908079006143984 -0.1742269969206789 -0.1787284853843637 -0.1845099741445551 -0.2504384749336814 -0.2033368883842481 -0.1952701417126828 -0.1952930708065464 -0.2048513594831506 -0.1852334651073436 -0.1917429425961938 -0.1879464352294876 -0.1867693597225898 -0.1918812562197154 -0.2064193863293376 -0.1845210870399212 -0.1793701263983663 -0.1963312859703745 -0.2392256610605082 -0.1746427571816151 -0.2215969726480468 -0.2132829773442803 -0.1884829070572544 -0.1845464664143270 -0.1904046800302091 -0.1777616589238441 -0.2087072772564992 -0.1922408464091276 -0.1908260654658286 -0.1814945808641132 -0.1971712629151226 -0.1895833164780135 -0.1831799672886113 -0.1782878052332832 -0.1882908063237369 -0.1772741033598816 -0.1970758798500036 -0.1866872779993695 -0.2219679273743323 -0.1970576334148319 -0.1832953265992508 -0.1850845553617501 -0.1838836261613666 -0.1913437271955820 -0.1739450699630136 -0.2073161003707238 -0.1774245272558288 -0.1820897161564308 -0.1840419313280880 -0.1928945108744640 -0.1849561359734711 -0.2123117840092347 -0.1846248828927229 -0.1847797108447346 -0.1906945766411285 -0.1775319246533827 -0.1791787844824815 -0.1922113647147333 -0.1823641435159396 -0.1872044372789532 -0.1984337387308958 -0.1886289395168893 -0.1854564855278743 -0.1875501732781508 -0.1796095451237213 -0.1830919004829105 -0.1993864561318970 -0.1777955083598353 -0.1976495310003782 -0.1837835906922194 -0.1963064183978618 -0.1840647660637862 -0.2553404198824313 -0.1942275097561556 -0.1848654692354540 -0.1863895413649451 -0.1861884066052130 -0.1833147815238513 -0.1881189818525450 -0.1848746897054633 -0.1868410799215370 -0.2240755529413722 -0.1966929358756990 -0.2375418349736408 -0.1852706650908086 -0.1965020542322326 -0.2065720258512554 -0.1814344769338861 -0.1873396052937465 -0.1861914474110916 -0.1876901272706270 -0.1870469055135284 -0.1909611751010801 -0.1880767122277751 -0.1952572763845507 -0.1925580392533260 -0.1885021645700435 -0.1846328793747288 -0.1883596427096153 -0.1947912188805746 -0.1846746386937157 -0.1868135536640626 -0.1913995932750556 -0.1849564193006689 -0.1852101657392830 -0.1819965495875800 -0.1889360113974331 -0.1907094613828665 -0.1867917059624561 -0.1852741734872042 -0.1848609464493544 -0.1847201034918699 -0.1848267188265922 -0.1854233228343681 -0.1846095690899332 -0.1888380162975407 -0.1922740743597513 -0.1849365562990858 -0.1854417513414687 -0.1880751853986105 -0.1930429036510910 -0.1844724128631173 -0.1732104025480422 -0.2051523827107946 -0.1838804030453836 -0.1878242436105323 -0.1867407692848681 -0.1857569797472393 -0.1755574189294734 -0.1830598187211762 -0.1846944339186085 -0.1959363988082073 -0.1813285963200056 -0.1900553151934563 -0.1869302166153382 -0.1824298870762227 -0.1846737544805502 -0.1898306320474198 -0.1877323153027873 -0.1760053013724864 -0.1846881597062583 -0.1782208911075988 -0.1849863097138398 -0.1793362751745255 -0.1813265244101655 -0.1850174597013146 -0.1842102007893021 -0.1813006670205680 -0.1840759582167030 -0.1838439280315707 -0.1851976513936848 -0.1831236978255732 -0.1859896636309973 -0.1849846320658827 -0.1866710592485533 -0.1849977588717050 -0.1808125903071114 -0.1869325296383211 -0.1912896383645412 -0.1994915546405404 -0.1848735490093173 -0.1874190458066878 -0.1846982215483290 -0.1809503870610585 -0.1937312536051367 -0.1806441972626542 -0.1822655138504970 -0.1900550626253068 -0.1850711638003910 -0.1846960329528296 -0.1865929792072948 -0.1821531562047296 -0.1783077308329097 -0.1790577700986261 -0.1836221630439735 -0.1850964285771071 -0.1853259240970068 -0.1766920999193655 -0.1693819407212050 -0.1754422911844139 -0.1713882794022871 -0.1796477517992363 -0.1777613972978170 -0.1846241595639279 -0.1868825064006560 -0.1748750578519751 -0.1907560544971140 -0.1833341616656859 -0.1845862973776161 -0.1740968725286638 -0.1817630549057931 -0.1847597721860997 -0.1908389618664861 -0.1851194063076940 -0.1885559118791049 -0.1866521774812310 -0.1858495978542987 -0.1864522585671666 -0.1818857069741717 -0.1836632838650402 -0.1888234281682611 -0.1885857074979023 -0.1825176089731266 -0.1847602869291762 -0.1914423205889913 -0.1785023954763051 -0.1863897786542309 -0.1850303778345848 -0.1829828060009290 -0.1854533442094030 -0.1833053551893855 -0.1823935362883030 -0.1829845264628476 -0.1836200150387761 -0.1758026493565980 -0.1858855304694751 -0.1848874697013214 -0.1848445341530208 -0.1846615026783739 -0.1846815915484503 -0.1875052647813741 -0.1907198854528343 -0.1846858167906430 -0.1850332556527496 -0.1888900234209323 -0.1823935331165793 -0.1845107980258391 -0.1878807869675759 -0.1859524705186859 -0.2119296894800885 -0.1839355964697929 -0.1832878089060513 -0.1837735242876617 -0.1855216647913623 -0.1935137651938748 -0.1860423597903701 -0.1849304301948565 -0.1854290540766022 -0.1905805897656915 -0.1849451045039702 -0.1866267080805971 -0.1843216354930634 -0.1851072209485118 -0.1891972699522592 -0.1855213226679904 -0.1847807573638273 -0.1855992660763204 -0.1898786354378459 -0.1852198160416735 -0.1866026815271245 -0.1845000541460137 -0.1870496069980934 -0.1855262852567878 -0.1867442178527561 -0.1836380596967774 -0.1749597343617464 -0.1835362352641383 -0.1786161743709409 -0.1847249574051276 -0.1851198402536172 -0.1846085672175755 -0.1848627990770795 -0.1850973883596797 
